tree
version=v4
num_class=1
num_tree_per_iteration=1
label_index=0
max_feature_idx=9
objective=regression
feature_names=Column_0 Column_1 Column_2 Column_3 Column_4 Column_5 Column_6 Column_7 Column_8 Column_9
feature_infos=[0.49990000000000001:15.0001] [1:52] [0.84615384615384615:10.369445573392934] [0.33333333333333331:2.1261083157829748] [1.791759469228055:8.6576939912038] [0.7230001437096264:1.8643071251483279] [32.539999999999999:41.950000000000003] [-124.34999999999999:-114.31] [0.10000000000000001:1] [0.68413802054362349:12.026400864586073]
tree_sizes=2694 2847 2849 2857 2863 2863 2866 2853 2860 2860 2865 2869 2858 2878 2885 2882 2867 2858 2870 2873 2838 2863 2883 2870 2870 2884 2871 2879 2903 2877 2880 2889 2888 2859 2896 2883 2877 2857 2850 2864 2875 2892 2862 2874 2876 2858 2885 2866 2854 2869 2912 2900 2879 2865 2871 2862 2887 2898 2846 2883 2849 2891 2858 2872 2883 2909 2871 2903 2901 2883 2878 2878 2816 2848 2846 2922 2871 2871 2861 2884 2874 2835 2887 2872 2887 2846 2893 2895 2856 2874 2874 2885 2899 2856 2843 2869 2891 2860 2826 2850 2864 2875 2889 2869 2864 2838 2865 2877 2882 2845 2886 2829 2885 2887 2856 2835 2880 2838 2849 2873 2866 2887 2874 2848 2843 2878 2869 2838 2849 2866 2880 2860 2865 2876 2861 2859 2830 2856 2879 2830 2880 2868 2875 2876 2841 2860 2838 2879 2862 2855 2819 2844 2811 2837 2876 2877 2815 2862 2833 2873 2825 2857 2867 2856 2847 2848 2864 2870 2855 2859 2862 2908 2858 2841 2896 2857 2858 2836 2865 2838 2830 2859 2873 2863 2891 2875 2840 2867 2846 2863 2833 2872 2855 2817 2795 2862 2845 2837 2809 2863 2865 2795 2848 2843 2864 2862 2823 2847 2860 2872 2855 2857 2814 2861 2861 2817 2845 2800 2836 2882 2829 2844 2860 2826 2904 2849 2845 2845 2845 2819 2871 2870 2868 2819 2897 2838 2865 2871 2861 2869 2846 2822 2845 2898 2839 2850 2854 2846 2865 2874 2869 2865 2864 2883 2824 2862 2864 2861 2845 2831 2866 2853 2859 2848 2840 2864 2851 2841 2848 2851 2865 2856 2866 2847 2864 2844 2880 2868 2862 2877 2843 2872 2853 2884 2867 2864 2851 2880 2844 2846 2874 2821 2884 2852 2844 2837 2877 2870 2859 2873

Tree=0
num_leaves=31
num_cat=0
split_feature=0 0 0 5 5 8 1 6 0 0 0 5 0 5 5 1 6 8 7 5 0 1 1 8 1 7 7 6 7 0
split_gain=6834.44 1756.95 1230.11 1059.71 420.043 319.734 260.618 211.038 193.265 186.206 174.913 137.516 137.335 134.501 115.134 101.445 98.0431 92.9915 91.0019 71.9842 71.1555 67.8083 67.4973 63.1333 61.0655 55.3044 48.2794 48.221 56.2195 46.7068
threshold=5.039200000000001 3.0716000000000006 6.8279500000000004 1.2229377246200348 1.2741916741240964 0.25946836882145446 24.500000000000004 37.935000000000009 2.3565500000000004 7.8245500000000012 3.9030000000000005 1.2542340859468633 5.7315000000000014 1.1017161944865166 1.3449986063932118 17.500000000000004 37.935000000000009 0.22873413553639849 -118.24499999999999 1.1474145156851538 3.9030000000000005 45.500000000000007 26.500000000000004 0.21269626914461487 27.500000000000004 -122.31499999999998 -117.79499999999999 37.905000000000008 -122.20499999999998 3.4763000000000006
decision_type=2 2 2 2 2 2 2 2 2 2 2 2 2 2 2 2 2 2 2 2 2 2 2 2 2 2 2 2 2 2
left_child=1 5 4 6 15 8 -3 13 -1 22 21 16 -6 29 27 -2 18 -10 -7 -17 25 23 -4 -5 -14 -15 -13 28 -12 -8
right_child=2 3 9 10 12 11 7 -9 17 -11 14 26 24 20 -16 19 -18 -19 -20 -21 -22 -23 -24 -25 -26 -27 -28 -29 -30 -31
leaf_value=2.0122378829513985 2.1098396157072243 2.0782227311900123 2.1344759979530199 2.0392578628100209 2.0844015063020525 2.0904974293063012 2.1262843272686895 2.0553901659395017 2.0270049892886655 2.1928293246047628 2.1232677246975076 2.0424370793107887 2.1039486407554064 2.1460833211688861 2.0579838357505991 2.187632699636691 2.0240056611786357 2.0488788547496593 2.0506228448439456 2.1441209481331791 2.131499608432768 2.074969786553575 2.1750029706373208 2.0565854683520395 2.134347593652087 2.0871469319507181 2.015168506169696 2.0577228464492108 2.0803820629998979 2.1657724868083168
leaf_weight=1900 166 625 267 1452 935 348 113 115 1544 616 85 1230 593 47 1562 126 117 709 243 387 266 214 167 824 229 260 187 206 757 222
leaf_count=1900 166 625 267 1452 935 348 113 115 1544 616 85 1230 593 47 1562 126 117 709 243 387 266 214 167 824 229 260 187 206 757 222
internal_value=2.06773 2.05109 2.12992 2.0688 2.11042 2.03205 2.10366 2.1192 2.02398 2.17516 2.05754 2.04783 2.09751 2.12728 2.06659 2.14381 2.06582 2.03389 2.0741 2.15481 2.11257 2.04806 2.15007 2.04553 2.11242 2.09617 2.03884 2.07941 2.08471 2.15245
internal_weight=16512 13026 3486 6748 2436 6278 1648 1023 4153 1050 5100 2125 1757 908 2610 679 708 2253 591 513 573 2490 434 2276 822 307 1417 1048 842 335
internal_count=16512 13026 3486 6748 2436 6278 1648 1023 4153 1050 5100 2125 1757 908 2610 679 708 2253 591 513 573 2490 434 2276 822 307 1417 1048 842 335
is_linear=0
shrinkage=1


Tree=1
num_leaves=31
num_cat=0
split_feature=0 0 0 5 5 5 6 1 6 0 7 7 6 0 5 0 6 1 5 7 1 7 5 6 0 5 1 8 7 1
split_gain=6168.08 1587.24 1110.18 946.39 379.161 304.747 254.707 245.281 184.757 168.051 167.586 152.19 149.647 144.125 126.131 117.89 110.024 97.4834 96.7303 94.2807 87.5773 86.1052 83.283 79.1202 75.4913 72.0954 60.9163 55.4614 48.8657 47.7756
threshold=5.039200000000001 3.1261000000000005 6.8279500000000004 1.2229377246200348 1.2793280433442271 1.1512783960208586 34.455000000000005 20.500000000000004 37.955000000000005 7.8245500000000012 -117.77499999999999 -121.69499999999998 37.905000000000008 4.1113000000000008 1.1017161944865166 5.7315000000000014 37.955000000000005 20.500000000000004 1.475075937457349 -118.24499999999999 45.500000000000007 -122.31499999999998 1.3606069388299831 34.135000000000012 3.9030000000000005 1.1474145156851538 26.500000000000004 0.21128403388938191 -122.33499999999999 27.500000000000004
decision_type=2 2 2 2 2 2 2 2 2 2 2 2 2 2 2 2 2 2 2 2 2 2 2 2 2 2 2 2 2 2
left_child=1 5 4 7 17 16 10 -3 14 26 18 12 21 20 -9 -6 19 -2 -7 23 27 -8 -15 -1 28 -19 -4 -5 -16 -17
right_child=2 3 9 13 15 6 11 8 -10 -11 -12 -13 -14 22 24 29 -18 25 -20 -21 -22 -23 -24 -25 -26 -27 -28 -29 -30 -31
leaf_value=0.056103666150529807 0.042752629108199817 0.0053201479601433519 0.063405080008484452 -0.023874036075075118 0.015573704845473317 -0.0043577206145161522 0.02896312037482858 0.07875176952969111 -0.010914300805610469 0.11884073581570737 -0.0443106520803149 -0.056861468374414081 -0.049982902807034171 0.012656736853443946 0.072375814487104825 0.034403506456745843 -0.037214520940748466 0.11794819648823013 -0.0277895454510536 -0.018536880718977574 0.011761681822057024 -0.023196317737368868 -0.0079494200695570446 0.0054005375778556283 0.059779875869893986 0.072859135820248791 0.10190569998858173 -0.0085584045102824018 0.016639525739680566 0.061847859896152935
leaf_weight=101 212 470 267 1784 916 764 100 367 117 616 897 1809 586 894 46 589 235 115 1040 318 257 379 1086 323 298 387 167 884 271 217
leaf_count=101 212 470 267 1784 916 764 100 367 117 616 897 1809 586 894 46 589 235 115 1040 318 257 379 1086 323 298 387 167 884 271 217
internal_value=-1.74614e-10 -0.015809 0.0590727 0.0017495 0.0405477 -0.0331584 -0.0376726 0.0355503 0.0484786 0.102051 -0.0266483 -0.0480332 -0.0330376 -0.00906261 0.0555549 0.0278456 -0.00739948 0.0711822 -0.0178661 0.00204328 -0.0161142 -0.0123071 0.00135457 0.0174784 0.0417122 0.0831883 0.0782198 -0.0187994 0.0247274 0.0417924
internal_weight=16512 13026 3486 6474 2436 6552 5575 1569 1099 1050 2701 2874 1065 4905 982 1722 977 714 1804 742 2925 479 1980 424 615 502 434 2668 317 806
internal_count=16512 13026 3486 6474 2436 6552 5575 1569 1099 1050 2701 2874 1065 4905 982 1722 977 714 1804 742 2925 479 1980 424 615 502 434 2668 317 806
is_linear=0
shrinkage=0.05


Tree=2
num_leaves=31
num_cat=0
split_feature=0 0 0 5 5 8 1 0 6 0 0 5 0 5 1 8 1 5 0 5 8 8 0 7 6 7 1 1 0 7
split_gain=5566.69 1435.73 1004.17 907.041 318.022 260.34 223.895 207.895 187.94 169.542 144.262 120.992 106.215 96.7738 90.0195 85.6004 80.4918 75.6449 69.4155 65.4886 63.9777 62.5785 61.8651 51.2298 47.1227 49.7381 42.4806 40.0907 39.9804 38.0687
threshold=5.039200000000001 3.0060500000000006 6.5924500000000004 1.2229377246200348 1.303722552295129 0.25946836882145446 24.500000000000004 7.8245500000000012 37.935000000000009 3.8197500000000004 2.3565500000000004 1.1017161944865166 2.2036500000000006 1.3449986063932118 20.500000000000004 0.30342510953978813 26.500000000000004 1.1474145156851538 5.6860000000000008 1.3449986063932118 0.22814016990291269 0.21423265120750237 3.9030000000000005 -122.40499999999999 37.925000000000004 -122.20499999999998 37.500000000000007 18.500000000000004 3.6670000000000003 -117.18499999999999
decision_type=2 2 2 2 2 2 2 2 2 2 2 2 2 2 2 2 2 2 2 2 2 2 2 2 2 2 2 2 2 2
left_child=1 5 4 6 14 10 -3 16 11 21 -1 28 15 24 -2 -7 -4 -16 -6 29 -12 26 23 -13 25 -11 -5 -9 -8 -14
right_child=2 3 7 9 18 12 8 27 -10 13 20 22 19 -15 17 -17 -18 -19 -20 -21 -22 -23 -24 -25 -26 -27 -28 -29 -30 -31
leaf_value=-0.050589334008823095 0.034872187203155457 0.0085948234267628886 0.058051216571758962 -0.029542344571405262 0.011971496076521072 -0.040757165205938181 0.059011080298716059 0.092968321086932496 -0.012164735243911104 0.049590326244841616 -0.037483957005084619 0.073035394462446376 0.013486852429991992 -0.0091423126713385452 0.10989168089237951 -0.013592733594046065 0.095345784147755935 0.063066422247942969 0.034148052559770332 -0.018837885013418636 -0.018257546842553662 -0.0092463994472007129 0.057588514774495961 0.017199920260759987 -0.01114304979810269 0.010830801228985587 -0.0089178022043910517 0.12106240349619285 0.092739509029537856 -0.034193536625342802
leaf_weight=1900 236 652 390 1266 785 651 169 179 124 92 1349 48 383 1682 105 523 230 483 641 462 637 953 266 285 218 825 311 437 183 47
leaf_count=1900 236 652 390 1266 785 651 169 179 124 92 1349 48 383 1682 105 523 230 483 641 462 637 953 266 285 218 825 311 437 183 47
internal_value=6.03925e-11 -0.0150185 0.0561191 0.000207962 0.0362294 -0.0331153 0.0317115 0.0923261 0.0457321 -0.00996721 -0.04074 0.0532812 -0.0187738 -0.00152958 0.0609582 -0.0286558 0.0718863 0.0714281 0.0219401 -0.00576764 -0.0313172 -0.019362 0.0396097 0.0252483 0.00975201 0.0147194 -0.025475 0.112899 0.076546 0.00827528
internal_weight=16512 13026 3486 7074 2250 5952 1727 1236 1075 5347 3886 951 2066 2817 824 1174 620 588 1426 892 1986 2530 599 333 1135 917 1577 616 352 430
internal_count=16512 13026 3486 7074 2250 5952 1727 1236 1075 5347 3886 951 2066 2817 824 1174 620 588 1426 892 1986 2530 599 333 1135 917 1577 616 352 430
is_linear=0
shrinkage=0.05


Tree=3
num_leaves=31
num_cat=0
split_feature=0 0 0 5 5 5 6 1 0 6 7 7 6 0 5 6 5 1 7 5 1 1 5 6 0 0 7 8 7 6
split_gain=5023.94 1299.51 906.268 771.704 290.067 262.931 218.14 204.712 187.625 153.556 143.779 132.609 130.462 120.01 100.457 94.24 84.0985 83.291 82.2079 78.2323 76.0729 72.6439 68.8125 68.6999 62.2813 60.6382 58.6674 46.4438 44.8075 44.3247
threshold=5.039200000000001 3.1261000000000005 6.5924500000000004 1.2229377246200348 1.3230502716540995 1.1512783960208586 34.455000000000005 19.500000000000004 7.8245500000000012 37.955000000000005 -117.77499999999999 -121.69499999999998 38.855000000000011 4.1113000000000008 1.1017161944865166 37.955000000000005 1.4884162731997224 20.500000000000004 -118.24499999999999 1.1474145156851538 42.500000000000007 26.500000000000004 1.3606069388299831 34.175000000000004 3.9630000000000005 5.6860000000000008 -122.38499999999998 0.21128403388938191 -122.40499999999999 37.725000000000001
decision_type=2 2 2 2 2 2 2 2 2 2 2 2 2 2 2 2 2 2 2 2 2 2 2 2 2 2 2 2 2 2
left_child=1 5 4 7 17 15 10 -3 21 14 16 12 26 20 -9 18 -7 -2 23 -19 27 -4 -15 -1 -16 -6 -8 -5 -22 -28
right_child=2 3 8 13 25 6 11 9 -10 -11 -12 -13 -14 22 24 -17 -18 19 -20 -21 28 -23 -24 -25 -26 -27 29 -29 -30 -31
leaf_value=0.04914681949710939 0.031801377344994247 0.0030743584337988468 0.055148655287943819 -0.022465671624317823 0.0093336292507852376 -0.0038228759546381193 0.010069161830043872 0.069874212142894979 0.10725376303353069 -0.009867207278028008 -0.040316518794858383 -0.051987897804270267 -0.054445897733395025 0.011635809228300584 0.022875249627833379 -0.033633036119281312 -0.02553478655918644 0.10439709623122501 -0.016517606336856262 0.057475513906038146 0.036903509063025315 0.090578495139337106 -0.0070948337727464242 0.004467820505210272 0.054497053394637389 0.03104668887592469 -0.0036210404829505613 -0.0080379489133953468 -0.0033060644788859396 -0.034262677636875176
leaf_weight=120 268 437 390 1705 717 807 153 384 616 121 897 1809 356 894 339 235 997 105 318 577 90 230 1086 304 288 583 170 829 301 386
leaf_count=120 268 437 390 1705 717 807 153 384 616 121 897 1809 356 894 339 235 997 105 318 577 90 230 1086 304 288 583 170 829 301 386
internal_value=-1.05784e-10 -0.0142676 0.0533131 0.00161991 0.0344179 -0.029966 -0.034159 0.0321422 0.0877098 0.0433636 -0.0239567 -0.0437471 -0.0297494 -0.00814349 0.0497345 -0.00603943 -0.0158222 0.0554188 0.00269978 0.0646995 -0.0145782 0.068292 0.00136234 0.0171128 0.0374001 0.0190711 -0.0173489 -0.0177456 0.00594934 -0.0248938
internal_weight=16512 13026 3486 6474 2250 6552 5575 1569 1236 1132 2701 2874 1065 4905 1011 977 1804 950 742 682 2925 620 1980 424 627 1300 709 2534 391 556
internal_count=16512 13026 3486 6474 2250 6552 5575 1569 1236 1132 2701 2874 1065 4905 1011 977 1804 950 742 682 2925 620 1980 424 627 1300 709 2534 391 556
is_linear=0
shrinkage=0.05


Tree=4
num_leaves=31
num_cat=0
split_feature=0 0 0 5 5 2 1 6 5 0 0 0 5 5 1 5 6 1 7 5 0 8 6 7 7 6 0 1 8 6
split_gain=4536.81 1211.47 779.147 713.144 278.156 221.667 185.832 147.133 134.062 132.13 129.31 111.614 94.2084 91.1025 84.4096 82.6862 79.0069 71.9539 71.9194 59.3834 56.6681 60.6328 52.2207 82.1518 51.5072 49.3861 49.2779 45.0481 44.2099 42.1313
threshold=5.0862500000000006 3.0716000000000006 6.8279500000000004 1.2229377246200348 1.2793280433442271 4.3101299737772214 24.500000000000004 37.815000000000005 1.2469979855047992 3.8443000000000005 8.7543500000000005 2.4115000000000006 1.1017161944865166 1.3449986063932118 26.500000000000004 1.3920840298481878 37.895000000000003 17.500000000000004 -118.24499999999999 1.1982348833759719 2.2213000000000007 0.32795228919128722 37.935000000000009 -122.28499999999998 -117.77499999999999 37.955000000000005 3.8644500000000002 21.500000000000004 0.19712436784978699 34.515000000000008
decision_type=2 2 2 2 2 2 2 2 2 2 2 2 2 2 2 2 2 2 2 2 2 2 2 2 2 2 2 2 2 2
left_child=1 5 4 6 17 8 -3 12 16 22 14 -7 -8 27 -4 -6 18 -2 -1 -13 21 -10 23 -5 29 -19 28 -11 -14 -25
right_child=2 3 10 9 15 11 7 -9 20 13 -12 19 26 -15 -16 -17 -18 25 -20 -21 -22 -23 -24 24 -26 -27 -28 -29 -30 -31
leaf_value=0.019263708312222114 0.033959078561853283 0.0082439673873051771 0.06000306658725954 0.033836119969406823 0.036210426560761871 -0.045940703021610588 0.072549529672568253 0.0011456690307727641 -0.040411945898587362 -0.0049060509407668025 0.11145948256143248 -0.0096721953023075746 -0.012711008181213401 -0.0080144418725289455 0.095760483321334633 0.013702016377585455 -0.035287786409151638 0.075920304936448413 -0.014576969725749223 -0.03274729920183965 -0.015707722145199634 -0.012263645508563986 -0.032093768994208807 -0.0042036123643287631 -0.030927003528061721 0.01079696488356398 0.053971394780180808 0.016595499070887133 0.034653740325995948 -0.022265156603227629
leaf_weight=406 165 629 402 89 783 1807 323 177 766 348 368 343 64 1707 280 852 139 478 256 1490 816 255 445 886 411 31 262 812 214 508
leaf_count=406 165 629 402 89 783 1807 323 177 766 348 368 343 64 1707 280 852 139 478 256 1490 816 255 445 886 411 31 262 812 214 508
internal_value=1.31511e-10 -0.0132446 0.0518625 0.00125612 0.0356235 -0.0291242 0.0296972 0.0426723 -0.0180879 -0.00786186 0.0875726 -0.0371225 0.0511893 -0.000667043 0.0746835 0.0244813 -0.00101828 0.0626526 0.00617728 -0.0284294 -0.0255309 -0.0333818 -0.0166808 -0.0130595 -0.0153718 0.0719541 0.0384128 0.010145 0.0237496 -0.0107856
internal_weight=16512 13153 3359 6875 2309 6278 1669 1040 2638 5206 1050 3640 863 2867 682 1635 801 674 662 1833 1837 1021 2339 1894 1805 509 540 1160 278 1394
internal_count=16512 13153 3359 6875 2309 6278 1669 1040 2638 5206 1050 3640 863 2867 682 1635 801 674 662 1833 1837 1021 2339 1894 1805 509 540 1160 278 1394
is_linear=0
shrinkage=0.05


Tree=5
num_leaves=31
num_cat=0
split_feature=0 0 0 5 5 8 0 1 7 6 6 7 5 6 6 0 7 1 1 5 5 0 0 7 5 6 7 6 7 7
split_gain=4107.9 1043.35 836.999 638.184 304.577 208.791 204.479 152.314 125.552 142.409 118.483 140.24 134.848 112.633 111.05 93.7451 93.3726 90.7141 87.917 86.6024 65.9006 60.3694 56.3138 55.2818 55.0493 49.7161 56.2958 47.0135 46.0786 37.8737
threshold=4.6002500000000008 6.2980000000000009 2.8324500000000001 1.1830637689491879 1.3054527143913124 0.27334863287933758 7.8245500000000012 24.500000000000004 -122.38499999999998 38.715000000000011 34.455000000000005 -121.53499999999998 1.3449986063932118 37.615000000000002 37.815000000000005 2.0475000000000008 -118.01499999999999 20.500000000000004 26.500000000000004 1.1292949038710753 1.1933997104207925 3.6670000000000003 5.3375500000000011 -117.79499999999999 1.3907785603356351 37.935000000000009 -118.23499999999999 34.455000000000005 -120.00499999999998 -118.32499999999997
decision_type=2 2 2 2 2 2 2 2 2 2 2 2 2 2 2 2 2 2 2 2 2 2 2 2 2 2 2 2 2 2
left_child=2 4 5 7 17 15 18 -4 9 -5 12 13 16 -12 21 -1 -10 -2 -3 -19 -17 -9 -6 -14 25 26 -7 29 -13 -22
right_child=1 6 3 8 22 24 -8 14 10 -11 11 28 23 -15 -16 20 -18 19 -20 -21 27 -23 -24 -25 -26 -27 -28 -29 -30 -31
leaf_value=-0.046958609253778004 0.021897041922305488 0.046987501930255214 0.006013524730445672 0.028185004793069235 0.0040463917651145575 0.0122332482858349 0.097025947070184665 0.037791406683164178 0.020950059605218688 -0.040539181499104751 0.014172892121261813 -0.026540139249945791 -0.0093880409754972458 -0.022082605874711659 0.00096180799254046319 -0.013509804757423294 -0.0080685657795385966 0.092131951832916684 0.079826789101178477 0.046529954696834096 0.0065575644980916496 0.068697018723165165 0.021292209644723944 -0.02839547414668846 -0.023650568694208628 -0.03865951889605132 -0.018411844647048741 -0.040924981821342743 -0.047272788980112911 -0.028923158359199619
leaf_weight=1356 316 541 473 365 1062 391 616 385 573 95 360 781 1236 529 137 460 537 123 327 678 84 268 854 554 779 93 243 1169 408 719
leaf_count=1356 316 541 473 365 1062 391 616 385 573 95 360 781 1236 529 137 460 537 123 327 678 84 268 854 554 779 93 243 1169 408 719
internal_value=1.63625e-10 0.0406401 -0.015304 -0.00356436 0.0238311 -0.0301637 0.0749943 0.0284534 -0.0110006 0.013992 -0.0133101 -0.0224228 -0.0067804 -0.00740096 0.0418889 -0.0364247 0.00691132 0.0445828 0.059359 0.0535325 -0.0305513 0.0504755 0.0117332 -0.0152708 -0.0144157 -0.00452024 0.000487574 -0.0345265 -0.0336545 -0.0252116
internal_weight=16512 4517 11995 6701 3033 5294 1484 1263 5438 460 4978 2078 2900 889 790 3788 1110 1117 868 801 2432 653 1916 1790 1506 727 634 1972 1189 803
internal_count=16512 4517 11995 6701 3033 5294 1484 1263 5438 460 4978 2078 2900 889 790 3788 1110 1117 868 801 2432 653 1916 1790 1506 727 634 1972 1189 803
is_linear=0
shrinkage=0.05


Tree=6
num_leaves=31
num_cat=0
split_feature=0 0 5 0 5 5 6 1 7 7 6 6 5 6 1 0 7 6 7 5 1 5 5 1 0 0 0 7 6 7
split_gain=3712.17 1032.7 611.164 601.561 236.201 227.623 176.449 163.47 124.952 123.161 119.333 107.824 106.346 103.344 100.625 90.6888 86.258 78.2907 74.1234 71.9225 70.4783 69.058 61.6717 52.4138 51.3723 49.285 44.7168 41.2612 60.493 81.3133
threshold=5.1385500000000013 3.1919000000000004 1.2159376932557651 7.6713000000000013 1.3509620140342073 1.1512783960208586 34.455000000000005 19.500000000000004 -121.69499999999998 -117.77499999999999 37.905000000000008 37.815000000000005 1.3433967279321533 37.945000000000007 20.500000000000004 6.1391500000000008 -122.20499999999998 37.935000000000009 -122.31499999999998 1.4884162731997224 26.500000000000004 1.0851050854752973 1.1805144296381453 18.500000000000004 4.5302000000000016 3.9630000000000005 6.0980000000000016 -117.68499999999999 34.455000000000005 -120.47499999999998
decision_type=2 2 2 2 2 2 2 2 2 2 2 2 2 2 2 2 2 2 2 2 2 2 2 2 2 2 2 2 2 2
left_child=1 5 7 4 14 17 9 -3 10 19 18 21 13 16 -2 -6 -4 20 -8 -7 -1 -9 -16 -5 -14 -23 -24 28 -18 -30
right_child=3 2 12 23 15 6 8 11 -10 -11 -12 -13 24 -15 22 -17 27 -19 -20 -21 -22 25 26 -25 -26 -27 -28 -29 29 -31
leaf_value=-0.011884165994058947 0.030630319908380763 0.0045203690266116796 0.044990273478997908 0.068798264957873556 0.011191379417678338 -0.0020951798751348834 0.030914226528432856 0.068383570639824032 -0.045311550986222388 -0.034836804178185493 -0.039083430531500263 0.004299628683074843 -0.015471832713688745 -0.017736637480352282 0.08930450070603109 0.038598471286834926 0.018663221239727235 -0.028137180188868988 -0.016099684370479588 -0.021623475807128423 0.017897579592871755 0.024587570947541455 0.044181990442194785 0.099067423336530791 -0.00016816056055542677 0.053931533331253202 0.069000847528831885 -0.011953764767982968 0.0082059494885264577 -0.040245257549676575
leaf_weight=373 382 404 153 205 786 866 106 300 1880 942 611 160 2195 455 161 490 709 249 401 1035 425 296 411 473 731 277 325 274 318 119
leaf_count=373 382 404 153 205 786 866 106 300 1880 942 611 160 2195 455 161 490 709 249 401 1035 425 296 411 473 731 277 325 274 318 119
internal_value=-4.20025e-11 -0.0116978 0.00277783 0.0480467 0.0369364 -0.025129 -0.0289772 0.0314866 -0.0374399 -0.0200531 -0.0242031 0.0420329 -0.00554967 0.00324977 0.0521211 0.021716 0.00932022 -0.00366044 -0.00627035 -0.0127274 0.00397704 0.0489485 0.0612732 0.0899152 -0.0116485 0.038773 0.0551414 0.0054769 0.00964444 -0.00498786
internal_weight=16512 13279 6391 3233 2555 6888 5841 1437 2998 2843 1118 1033 4954 2028 1279 1276 1573 1047 507 1901 798 873 897 678 2926 573 736 1420 1146 437
internal_count=16512 13279 6391 3233 2555 6888 5841 1437 2998 2843 1118 1033 4954 2028 1279 1276 1573 1047 507 1901 798 873 897 678 2926 573 736 1420 1146 437
is_linear=0
shrinkage=0.05


Tree=7
num_leaves=31
num_cat=0
split_feature=0 0 5 0 5 6 1 5 7 6 7 0 5 5 6 5 7 7 1 6 8 6 0 7 7 6 7 6 0 1
split_gain=3366.83 1163.45 512.706 347.976 316.522 163.587 160.872 151.75 151.288 146.36 144.979 133.542 109.785 106.801 95.2025 90.8874 73.3479 71.8084 64.234 56.5263 55.1853 53.1742 46.5619 45.0243 42.5098 41.944 84.3651 39.2521 39.1767 37.1008
threshold=5.6042500000000013 3.5523000000000002 1.2247784117482363 7.8245500000000012 1.1742312152416627 34.455000000000005 19.500000000000004 1.3509620140342073 -121.645 37.905000000000008 -117.77499999999999 2.5761500000000006 1.3640352388416692 1.0851050854752973 37.945000000000007 1.4190450782465118 -117.90499999999999 -122.31499999999998 24.500000000000004 37.955000000000005 0.2050371802501573 37.995000000000012 4.5302000000000016 -122.20499999999998 -119.88499999999998 34.665000000000006 -120.47499999999998 37.725000000000001 4.1408500000000013 21.500000000000004
decision_type=2 2 2 2 2 2 2 2 2 2 2 2 2 2 2 2 2 2 2 2 2 2 2 2 2 2 2 2 2 2
left_child=1 4 6 7 11 10 -3 19 9 17 15 -1 14 -8 16 -6 23 -7 -13 29 -20 28 -14 -4 -10 -25 -27 -19 -15 -2
right_child=3 2 12 -5 5 8 13 -9 24 -11 -12 18 22 21 -16 -17 -18 27 20 -21 -22 -23 -24 25 -26 26 -28 -29 -30 -31
leaf_value=-0.01616319424357127 0.045498268413501672 0.0075692990166514752 0.045137683445300232 0.087661062296201755 0.0024113037224912123 0.027706779781919051 0.075191435221705807 0.029117305325335144 -0.036401335663381308 -0.035904840596809255 -0.033008109232917672 -0.0052762024385669126 -0.013285484180349012 0.02640156180828095 -0.013262917944169804 -0.018353250593285183 -0.0055442283637160434 0.00072576597713950013 -0.015920913002667698 0.017763501919757625 0.030762633585613475 -0.0092184491784729327 0.00071794838761819009 0.023244096962947925 -0.05115624376897631 0.015384025099625566 -0.038052039558165954 -0.027978220242418968 0.051510910373590485 0.069450359842346487
leaf_weight=734 226 368 149 616 824 147 242 867 1275 720 1093 295 1383 271 410 1462 386 264 74 77 438 58 1040 726 791 332 95 217 364 568
leaf_count=734 226 368 149 616 824 147 242 867 1275 720 1093 295 1383 271 410 1462 386 264 74 77 438 58 1040 726 791 332 95 217 364 568
internal_value=-1.25942e-10 -0.00920625 0.0079396 0.0553705 -0.0211882 -0.0258292 0.0355733 0.0439257 -0.0335485 -0.020518 -0.01803 -0.000729642 -2.47169e-05 0.0465951 0.00834862 -0.0108686 0.0135979 -0.00287703 0.0133078 0.0586661 0.0240154 0.0366091 -0.00727493 0.0192729 -0.0420505 0.0159304 0.00349544 -0.0122238 0.040795 0.0626328
internal_weight=16512 14158 5824 2354 8334 6793 1303 1738 3414 1348 3379 1541 4521 935 2098 2286 1688 628 807 871 512 693 2423 1302 2066 1153 427 481 635 794
internal_count=16512 14158 5824 2354 8334 6793 1303 1738 3414 1348 3379 1541 4521 935 2098 2286 1688 628 807 871 512 693 2423 1302 2066 1153 427 481 635 794
is_linear=0
shrinkage=0.05


Tree=8
num_leaves=31
num_cat=0
split_feature=0 0 0 5 5 8 0 1 7 6 6 5 1 0 6 1 5 5 0 5 0 5 7 6 7 6 7 5 6 8
split_gain=3050.35 778.973 633.825 480.797 237.394 163.868 146.777 119.081 111.253 122.736 96.9266 99.9195 95.9816 81.7065 73.4647 66.8254 66.6499 54.4307 46.6409 46.3122 44.557 44.0201 39.9293 39.2382 50.1914 38.967 43.1822 30.9546 30.6933 30.2958
threshold=4.6002500000000008 6.2980000000000009 2.8324500000000001 1.1712374744461631 1.2741916741240964 0.27334863287933758 8.4353500000000015 24.500000000000004 -122.38499999999998 38.715000000000011 37.945000000000007 1.3416455001692398 26.500000000000004 2.2547500000000005 37.815000000000005 21.500000000000004 1.395845566957328 1.1162781925240242 3.6670000000000003 1.206268373011113 3.5386500000000005 1.3495323692555847 -117.79499999999999 37.955000000000005 -118.02499999999999 37.935000000000009 -118.24499999999999 0.96190434803379266 38.015000000000008 0.23347002169482617
decision_type=2 2 2 2 2 2 2 2 2 2 2 2 2 2 2 2 2 2 2 2 2 2 2 2 2 2 2 2 2 2
left_child=2 4 5 7 15 13 12 -4 9 28 11 20 -3 -1 18 -2 23 -17 27 -15 29 25 -13 24 -6 26 -7 -9 -5 -10
right_child=1 6 3 8 16 21 -8 14 10 -11 -12 22 -14 19 -16 17 -18 -19 -20 -21 -22 -23 -24 -25 -26 -27 -28 -29 -30 -31
leaf_value=-0.03891627012913873 0.022565389379126978 0.042549471129936074 0.0058427264895760077 0.036749149536444752 0.031431537199021142 0.013748659717968521 0.089323418598437995 0.078767401249044466 -0.015650815255469599 -0.036144689493572593 -0.027307816875312564 -0.011188276429726082 0.07345813106729697 -0.008998701323432173 0.0029467795087592835 0.08533930871093158 0.0027149600975340865 0.045274123188695392 0.063346318805684587 -0.028293804578815314 0.0074721699067598684 -0.019636573161859919 -0.026066520020420265 -0.0026797937514493244 0.0061930513894059803 -0.03292905975847437 -0.014580800067671238 0.029895372646443985 0.0063585852098658807 0.0062140286498145467
leaf_weight=1918 278 641 436 256 676 339 430 36 495 97 792 1924 413 394 118 103 1059 479 237 1476 1041 854 589 160 278 90 223 324 123 233
leaf_count=1918 278 641 436 256 676 339 430 36 495 97 792 1924 413 394 118 103 1059 479 237 1476 1041 854 589 160 278 90 223 324 123 233
internal_value=-9.23836e-11 0.0350203 -0.0131877 -0.00297182 0.0204963 -0.0261187 0.0647045 0.0264378 -0.00907101 0.0140417 -0.0112393 -0.00826721 0.0546607 -0.0316654 0.0389965 0.0427319 0.0116962 0.0523647 0.046122 -0.0242284 0.000836204 -0.0121673 -0.0146755 0.020234 0.0240769 -0.00238395 0.00250761 0.0347826 0.0268862 -0.00865286
internal_weight=16512 4517 11995 6701 3033 5294 1484 1151 5550 476 5074 4282 1054 3788 715 860 2173 582 597 1870 1769 1506 2513 1114 954 652 562 360 379 728
internal_count=16512 4517 11995 6701 3033 5294 1484 1151 5550 476 5074 4282 1054 3788 715 860 2173 582 597 1870 1769 1506 2513 1114 954 652 562 360 379 728
is_linear=0
shrinkage=0.05


Tree=9
num_leaves=31
num_cat=0
split_feature=0 0 5 0 5 6 6 1 5 7 7 6 7 5 5 6 7 6 7 7 7 5 7 6 6 0 7 6 7 6
split_gain=2766.49 951.542 424.579 282.81 261.752 142.88 137.005 133.262 127.907 120.475 117.954 117.778 101.051 91.949 86.7626 81.2648 75.3989 71.3857 79.674 69.2283 69.1178 68.0516 48.8969 44.9076 44.1557 43.4927 42.2471 56.5285 40.4733 51.1743
threshold=5.6042500000000013 3.5523000000000002 1.2229377246200348 7.8245500000000012 1.1933997104207925 37.975000000000001 34.455000000000005 19.500000000000004 1.2809773824031867 -121.645 -117.77499999999999 38.675000000000004 -122.35499999999998 1.3791596811292706 1.0851050854752973 37.945000000000007 -117.145 34.455000000000005 -118.30499999999999 -118.01499999999999 -120.08499999999999 1.4884162731997224 -122.38499999999998 37.725000000000001 37.965000000000011 6.2980000000000009 -121.49499999999999 34.515000000000008 -122.20499999999998 34.665000000000006
decision_type=2 2 2 2 2 2 2 2 2 2 2 2 2 2 2 2 2 2 2 2 2 2 2 2 2 2 2 2 2 2
left_child=1 4 7 8 5 12 10 -3 -2 11 21 22 -1 15 -9 19 17 18 -14 28 -19 -6 -8 -24 -16 -10 -15 -28 -4 -30
right_child=3 2 13 -5 6 -7 9 14 25 -11 -12 -13 16 26 24 -17 -18 20 -20 -21 -22 -23 23 -25 -26 -27 27 -29 29 -31
leaf_value=0.05581158343502271 0.061128246611265181 0.0070893765303380683 0.040908628436963912 0.079302245564758789 -0.00085348115328357389 -0.028431188478686167 0.013356424255537692 0.068571788126560437 0.021842162410114913 -0.03867291489406105 -0.030425672040368969 -0.041128295715259139 0.038273410572898021 0.0054284666257211006 0.037991675306606049 -0.012084120576202674 -0.027881505603449104 0.0013300704361302916 0.0027305827928979353 -0.0030959824973352725 -0.047456820088100961 -0.018331110792089243 0.0013276073864395841 -0.025324219696488529 -0.0042509534936128321 0.04060830133857668 -0.006430735460544193 -0.028906285654740949 0.023162632303181285 0.0019171104602531124
leaf_weight=93 503 363 164 616 1054 401 197 242 618 2003 1047 408 268 498 598 457 183 359 383 576 91 1181 258 408 69 617 1334 354 686 483
leaf_count=93 503 363 164 616 1054 401 197 242 618 2003 1047 408 268 498 598 457 183 359 383 576 91 1181 258 408 69 617 1334 354 686 483
internal_value=-4.3752e-11 -0.00834521 0.00716076 0.0501918 -0.0191812 -0.00216577 -0.0237958 0.0326993 0.0398742 -0.0310326 -0.0165766 -0.018992 0.00548306 2.43335e-05 0.0429264 0.00685495 0.00183777 0.00677749 0.0173627 0.0113888 -0.00853572 -0.0100889 -0.0085267 -0.0149996 0.0336217 0.0312176 -0.00736873 -0.0111442 0.0176478 0.0143845
internal_weight=16512 14158 5824 2354 8334 1778 6556 1272 1738 3274 3282 1271 1377 4552 909 2366 1284 1101 651 1909 450 2235 863 666 667 1235 2186 1688 1333 1169
internal_count=16512 14158 5824 2354 8334 1778 6556 1272 1738 3274 3282 1271 1377 4552 909 2366 1284 1101 651 1909 450 2235 863 666 667 1235 2186 1688 1333 1169
is_linear=0
shrinkage=0.05


Tree=10
num_leaves=31
num_cat=0
split_feature=0 0 0 5 5 8 0 1 1 0 7 6 6 7 7 6 6 1 1 5 2 7 9 7 5 7 7 6 7 6
split_gain=2517.69 658.578 496.63 380.447 208.348 139.083 124.222 95.8376 92.9099 92.7234 90.3687 100.496 77.5348 99.1147 96.8453 81.3341 60.861 58.7694 58.5976 55.7476 53.9758 40.2187 44.2784 39.6359 39.5446 38.8665 37.283 37.2233 35.9732 32.6391
threshold=4.5302000000000016 6.2980000000000009 2.8324500000000001 1.1712374744461631 1.2741916741240964 0.30342510953978813 8.7543500000000005 24.500000000000004 27.500000000000004 2.2213000000000007 -122.38499999999998 38.715000000000011 34.455000000000005 -121.57499999999997 -118.28499999999998 37.615000000000002 37.815000000000005 18.500000000000004 21.500000000000004 1.1162781925240242 4.4211014336947674 -117.49499999999999 3.9160338148631051 -120.00499999999998 1.3103532791649928 -122.40499999999999 -122.20499999999998 34.155000000000008 -118.37499999999999 33.635000000000012
decision_type=2 2 2 2 2 2 2 2 2 2 2 2 2 2 2 2 2 2 2 2 2 2 2 2 2 2 2 2 2 2
left_child=2 4 5 7 18 9 8 -4 -3 -1 11 -5 14 15 24 -14 25 -6 -2 -20 -11 22 -16 -15 -12 -9 -19 28 -27 -23
right_child=1 6 3 10 17 -7 -8 16 -10 20 12 -13 13 23 21 -17 -18 26 19 -21 -22 29 -24 -25 -26 27 -28 -29 -30 -31
leaf_value=-0.034335918035671195 0.020023277395129931 0.03894827732770164 0.0046604614147853184 0.024464758886353563 -0.00063443696474291082 -0.0043306766348471543 0.083654089545345187 0.072146613347804409 0.068726844357415329 -0.0098021116602080276 0.025785153752851148 -0.033011720073409377 0.013421457033953629 -0.020940005883147778 -0.010334939582904915 -0.017707340451817648 0.0018065451335910168 0.039221446903852319 0.078915316633163105 0.040079195242164412 -0.025817311243601333 -0.011446590737172274 0.010351571013347827 -0.040322082009933591 0.0011181889322039711 0.072398684050967096 0.013406263215247922 0.018382608843131358 0.035291002666638628 -0.032970339281542492
leaf_weight=2233 293 696 427 366 808 788 368 87 420 827 278 96 350 786 1113 524 117 156 113 507 1446 451 337 397 391 94 1352 188 214 289
leaf_count=2233 293 696 427 366 808 788 368 87 420 827 278 96 350 786 1113 524 117 156 113 507 1446 451 337 397 391 94 1352 188 214 289
internal_value=-4.52011e-12 0.0308919 -0.0123395 -0.00308543 0.018221 -0.0237104 0.0584623 0.023329 0.0501553 -0.0270995 -0.00862078 0.0125216 -0.0106077 -0.0180106 -0.00528145 -0.00524157 0.0347169 0.0102466 0.0384495 0.0471574 -0.0199904 -0.0103676 -0.00552711 -0.0274444 0.0113684 0.0413215 0.0160768 0.0359147 0.0466161 -0.0198525
internal_weight=16512 4713 11799 6505 3229 5294 1484 1127 1116 4506 5378 462 4916 2057 2859 874 700 2316 913 620 2273 2190 1450 1183 669 583 1508 496 308 740
internal_count=16512 4713 11799 6505 3229 5294 1484 1127 1116 4506 5378 462 4916 2057 2859 874 700 2316 913 620 2273 2190 1450 1183 669 583 1508 496 308 740
is_linear=0
shrinkage=0.05


Tree=11
num_leaves=31
num_cat=0
split_feature=0 0 5 0 5 6 7 7 6 1 0 6 0 0 7 7 1 5 5 7 7 6 5 6 6 7 6 7 8 7
split_gain=2285.57 628.428 404.611 366.21 147.319 130.2 154.195 119.55 113.592 109.403 90.2967 84.2945 69.4579 59.4378 57.9473 50.9437 50.4312 49.7903 49.3518 44.308 42.5574 42.2367 52.7698 40.5851 38.143 37.4997 37.2074 59.8508 36.5503 36.4641
threshold=5.1385500000000013 3.0060500000000006 1.2089180225718514 6.8279500000000004 1.2793280433442271 34.455000000000005 -118.30499999999999 -121.69499999999998 38.675000000000004 21.500000000000004 3.9030000000000005 37.815000000000005 8.7543500000000005 3.9030000000000005 -122.20499999999998 -122.28499999999998 26.500000000000004 1.2433576173740957 1.395845566957328 -122.38499999999998 -116.51499999999999 37.615000000000002 1.38907629347811 37.955000000000005 37.595000000000006 -117.85499999999998 37.935000000000009 -122.28499999999998 0.19712436784978699 -117.79499999999999
decision_type=2 2 2 2 2 2 2 2 2 2 2 2 2 2 2 2 2 2 2 2 2 2 2 2 2 2 2 2 2 2
left_child=1 5 9 4 23 6 17 8 19 -3 26 13 16 15 -12 -11 -5 -1 -6 -7 -8 22 -16 25 -21 -2 27 -4 -17 -29
right_child=3 2 10 12 18 7 20 -9 -10 11 14 -13 -14 -15 21 28 -18 -19 -20 24 -22 -23 -24 -25 -26 -27 -28 29 -30 -31
leaf_value=0.033143803803250195 0.056061221517815021 0.0040487421961897321 0.026524104046750707 0.041170926826898317 0.026688561928752175 0.016094560685234068 -0.017159648055463685 -0.036165228872824126 -0.038797314262931731 0.06521307506206396 0.02060031334000233 0.00062271924244679429 0.079471386985033352 0.053505293175423733 0.0085598113427044469 -0.012531828933624903 0.068809762645656261 7.0855802869401087e-05 0.0088735446626569472 0.0089589806667275049 -0.045309116562072947 -0.015634745944928842 -0.0072308802859692538 0.00016097530235790396 -0.018821221564108946 0.02365676513089883 -0.023679216788386203 -0.0073543716417076715 0.027057387457140026 -0.022580235533832205
leaf_weight=176 474 517 112 402 777 181 2199 1895 379 76 323 178 368 374 1121 69 280 322 778 165 143 458 1002 44 492 110 543 1663 376 515
leaf_count=176 474 517 112 402 777 181 2199 1895 379 76 323 178 368 374 1121 69 280 322 778 165 143 458 1002 44 492 110 543 1663 376 515
internal_value=-2.93546e-12 -0.00917885 0.000624708 0.0377006 0.0260298 -0.0212472 -0.013506 -0.0283117 -0.0160829 0.0229435 -0.0055609 0.0320474 0.0619647 0.0382973 0.000634778 0.0273802 0.0525182 0.0117593 0.0177753 -0.0058099 -0.0188784 -0.00186382 0.00110702 0.0464687 -0.0118445 0.0499576 -0.0119118 -0.00912159 0.0209188 -0.0109546
internal_weight=16512 13279 7327 3233 2183 5952 2840 3112 1217 1590 5737 1073 1050 895 2904 521 682 498 1555 838 2342 2581 2123 628 657 584 2833 2290 445 2178
internal_count=16512 13279 7327 3233 2183 5952 2840 3112 1217 1590 5737 1073 1050 895 2904 521 682 498 1555 838 2342 2581 2123 628 657 584 2833 2290 445 2178
is_linear=0
shrinkage=0.05


Tree=12
num_leaves=31
num_cat=0
split_feature=0 0 5 0 5 1 6 0 5 7 7 6 6 5 1 1 6 7 7 1 7 1 6 0 7 6 5 6 3 6
split_gain=2069.4 707.513 378.238 207.594 139.323 119.061 109.773 103.046 98.1993 92.6206 92.4154 87.5878 83.205 58.2099 49.2288 46.3242 45.2794 44.2701 43.9516 40.3837 40.1146 39.6721 46.0063 35.6305 33.7624 32.9573 29.3679 28.6161 27.9209 27.3268
threshold=5.6042500000000013 3.1919000000000004 1.2247784117482363 7.6713000000000013 1.1119071544764096 19.500000000000004 34.455000000000005 4.5302000000000016 1.3907785603356351 -121.69499999999998 -118.30499999999999 38.675000000000004 37.995000000000012 1.1211935300951972 42.500000000000007 18.500000000000004 37.955000000000005 -117.59499999999998 -117.83499999999999 18.500000000000004 -122.38499999999998 27.500000000000004 37.815000000000005 3.9630000000000005 -119.88499999999998 37.595000000000006 1.4239183270143676 35.660000000000004 1.0497872762344291 33.935000000000009
decision_type=2 2 2 2 2 2 2 2 2 2 2 2 2 2 2 2 2 2 2 2 2 2 2 2 2 2 2 2 2 2
left_child=1 4 5 8 21 -3 10 14 16 11 -6 20 13 -7 -4 -9 18 26 28 -5 -8 -1 -23 -15 27 -22 -12 -11 -2 -20
right_child=3 2 7 19 6 12 9 15 -10 24 17 -13 -14 23 -16 -17 -18 -19 29 -21 25 22 -24 -25 -26 -27 -28 -29 -30 -31
leaf_value=-0.0097985915778254981 0.045312090029356406 0.0030456798630406874 -0.0098181579296517264 0.048219326943394779 0.005523053408968367 0.049736128824201795 0.014451919305360035 -0.0043556123684642704 0.018170930307417826 -0.0032020955946603698 -0.0019917386711891154 -0.035929423609379695 -0.013873126330888934 0.013437932024140745 0.0075824352520889732 0.012208614884197158 0.010309986701284192 -0.027101558195296988 0.03236600807223633 0.07478864576842785 0.0059216540574768464 0.023666885314848712 -0.015014083793595713 0.03657788880370149 -0.042762676489183166 -0.019831247266028515 -0.017385821302208483 -0.031505180314690955 0.065762333269135206 -0.022926338887415257
leaf_weight=399 533 479 3182 205 491 463 168 630 620 97 428 399 90 289 466 1279 95 895 159 473 169 273 107 392 745 469 1122 1126 243 26
leaf_count=399 533 479 3182 205 491 463 168 630 620 97 428 399 90 289 466 1279 95 895 159 473 169 273 107 392 745 469 1122 1126 243 26
internal_value=-3.33296e-11 -0.00721762 0.00366204 0.04341 -0.0187007 0.0242033 -0.02124 -0.00267 0.0339661 -0.0276872 -0.0142723 -0.0167701 0.032416 0.0360576 -0.00759538 0.00674216 0.0432397 -0.0182475 0.046495 0.0667551 -0.00728557 0.00121298 0.0127751 0.0267578 -0.0343718 -0.0130096 -0.0131351 -0.0292604 0.051716 0.0245952
internal_weight=16512 14158 7270 2354 6888 1713 6109 5557 1676 3173 2936 1205 1234 1144 3648 1909 1056 2445 961 678 806 779 380 681 1968 638 1550 1223 776 185
internal_count=16512 14158 7270 2354 6888 1713 6109 5557 1676 3173 2936 1205 1234 1144 3648 1909 1056 2445 961 678 806 779 380 681 1968 638 1550 1223 776 185
is_linear=0
shrinkage=0.05


Tree=13
num_leaves=31
num_cat=0
split_feature=0 0 5 0 5 5 1 6 5 7 7 6 6 7 6 7 0 6 7 7 6 7 0 1 6 7 0 7 6 7
split_gain=1870.4 572.754 341.11 244.244 126.458 110.413 102.951 98.9291 73.0069 71.6949 71.4463 71.3595 66.8125 65.9113 58.4655 48.0859 50.2534 46.4231 48.302 45.9013 41.5708 37.8879 37.1183 36.4463 34.5562 32.8666 31.8408 30.0586 32.9148 68.0125
threshold=5.3375500000000011 3.1919000000000004 1.2159376932557651 7.6713000000000013 1.1512783960208586 1.3509620140342073 19.500000000000004 34.455000000000005 1.3369831209733862 -120.32499999999997 -118.28499999999998 37.905000000000008 37.965000000000011 -122.31499999999998 37.945000000000007 -122.40499999999999 3.9630000000000005 37.935000000000009 -117.15499999999999 -122.20499999999998 37.955000000000005 -118.13499999999998 4.1760500000000009 18.500000000000004 37.615000000000002 -117.59499999999998 6.1391500000000008 -117.16499999999998 34.455000000000005 -120.47499999999998
decision_type=2 2 2 2 2 2 2 2 2 2 2 2 2 2 2 2 2 2 2 2 2 2 2 2 2 2 2 2 2 2
left_child=1 4 6 5 17 20 -3 10 14 11 -6 13 15 -9 19 -8 -17 18 -1 -4 21 -2 -10 -5 -18 -12 -7 28 -21 -30
right_child=3 2 8 23 7 26 12 9 22 -11 25 -13 -14 -15 -16 16 24 -19 -20 27 -22 -23 -24 -25 -26 -27 -28 -29 29 -31
leaf_value=0.0095438978278427049 0.0498879709581454 0.0028438265945253619 0.034269330743700269 0.045808360336302985 0.0010724812422567597 0.0096502117531935411 0.061025574625199364 0.025556248272681294 -0.012819220882528402 -0.039282351274390372 -0.013361808630567563 -0.029940394765330197 -0.0091012587801188888 -0.016380588487936058 -0.012280028261079309 0.018517364532384974 0.048572080465456052 -0.020611939487425263 -0.023767581140944877 0.013689841639724263 0.0089256021099802293 0.027758825132968252 -0.0021281597592219359 0.071049215216347147 0.0070325742620204025 -0.02587613147472851 0.026982600209208171 -0.017712634081020952 0.0092001530096626309 -0.033498532346521434
leaf_weight=668 682 432 156 205 619 577 155 106 1781 848 1376 1237 92 807 429 422 366 249 130 864 95 270 1492 473 58 848 490 125 330 130
leaf_count=668 682 432 156 205 619 577 155 106 1781 848 1376 1237 92 807 429 422 366 249 130 864 95 270 1492 473 58 848 490 125 330 130
internal_value=1.12256e-11 -0.00759133 0.00266636 0.0373041 -0.0177656 0.0289291 0.0235081 -0.0206339 -0.00332263 -0.0269706 -0.0139518 -0.0221146 0.0316754 -0.0115117 0.00411655 0.0354231 0.0307324 -0.00176393 0.00411722 0.00849919 0.0404646 0.0436118 -0.00794569 0.0634174 0.0428898 -0.0181335 0.0176098 0.00572477 0.00793751 -0.00286687
internal_weight=16512 13720 6832 2792 6888 2114 1525 5841 5307 2998 2843 2150 1093 913 2034 1001 846 1047 798 1605 1047 952 3273 678 424 2224 1067 1449 1324 460
internal_count=16512 13720 6832 2792 6888 2114 1525 5841 5307 2998 2843 2150 1093 913 2034 1001 846 1047 798 1605 1047 952 3273 678 424 2224 1067 1449 1324 460
is_linear=0
shrinkage=0.05


Tree=14
num_leaves=31
num_cat=0
split_feature=0 0 0 5 5 8 1 0 1 1 7 6 6 7 6 7 7 6 7 6 0 7 7 6 7 5 7 6 7 6
split_gain=1697.04 448.606 353.059 287.219 152.215 109.442 80.1519 79.7375 76.3429 70.3664 56.8904 76.4044 52.9458 74.5239 128.099 79.2647 52.5963 51.3007 49.7035 42.8074 42.6169 34.3643 34.0165 33.297 37.9641 31.8959 33.9135 29.4071 39.0965 27.1461
threshold=4.5302000000000016 6.3568000000000007 2.5761500000000006 1.1712374744461631 1.328812209228188 0.30342510953978813 24.500000000000004 8.7543500000000005 47.500000000000007 33.500000000000007 -118.27499999999999 34.165000000000006 37.925000000000004 -121.28499999999998 34.455000000000005 -118.28499999999998 -122.40499999999999 37.815000000000005 -122.24499999999999 37.505000000000003 1.8845500000000002 -120.00499999999998 -122.40499999999999 37.775000000000013 -117.73499999999999 1.4465172254562779 -117.68499999999999 34.165000000000006 -118.37499999999999 33.635000000000012
decision_type=2 2 2 2 2 2 2 2 2 2 2 2 2 2 2 2 2 2 2 2 2 2 2 2 2 2 2 2 2 2
left_child=2 4 5 6 10 20 -4 9 12 -3 11 -2 13 -5 15 -15 -10 22 -13 -20 -1 -16 -8 24 -6 26 -17 28 -24 -28
right_child=1 7 3 8 23 -7 17 -9 16 -11 -12 18 -14 14 21 25 -18 -19 19 -21 -22 -23 27 -25 -26 -27 29 -29 -30 -31
leaf_value=-0.032990017195354354 0.0590988773776642 0.034233448278078026 0.0017088430013440948 0.0075365077425906153 0.012310712700978031 -0.0038433572585662742 0.060508211286444416 0.068867630169742095 0.037625303157319719 0.063793662454025665 0.012780215671063281 0.045192342508817096 -0.019193287094797323 0.0092933585806628943 -0.015220213186182219 0.0025674537605558326 0.00027311228366803058 -0.00028484477923894434 0.029025524856442643 -0.00046217798991710882 -0.021385668906718759 -0.035873366020367524 0.060845038002324214 -0.011182814809629923 -0.0067692983145032958 -0.016361388911007201 -0.0045950195119132059 0.012518187049217287 0.026001088877708186 -0.025275664886202556
leaf_weight=1220 233 783 503 716 1256 704 95 368 137 271 460 240 1172 713 341 742 302 142 320 200 2251 492 114 253 329 1027 389 197 274 268
leaf_count=1220 233 783 503 716 1256 704 95 368 137 271 460 240 1172 713 341 742 302 142 320 200 2251 492 114 253 329 1027 389 197 274 268
internal_value=-8.23939e-12 0.0253624 -0.0101308 -0.00373035 0.0152223 -0.0218186 0.0174295 0.0488299 -0.00818135 0.0418338 0.0273165 0.0340503 -0.00968796 -0.00731163 -0.00998818 -0.00536262 0.0119297 0.0270493 0.0263709 0.0176841 -0.0254644 -0.0274187 0.0327573 0.00566154 0.00835026 -0.00967001 -0.00475789 0.0282508 0.0362387 -0.013031
internal_weight=16512 4713 11799 7624 3291 4175 1325 1422 6299 1054 1453 993 5860 4688 3972 3139 439 822 760 520 3471 833 680 1838 1585 2426 1399 585 388 657
internal_count=16512 4713 11799 7624 3291 4175 1325 1422 6299 1054 1453 993 5860 4688 3972 3139 439 822 760 520 3471 833 680 1838 1585 2426 1399 585 388 657
is_linear=0
shrinkage=0.05


Tree=15
num_leaves=31
num_cat=0
split_feature=0 0 5 5 0 6 6 5 1 7 7 6 7 5 6 5 7 7 7 6 7 6 7 7 6 7 6 1 0 7
split_gain=1540.11 535.754 248.878 160.309 152.816 88.3633 83.4696 81.1869 80.8807 76.5506 73.2404 71.2956 66.7402 65.5813 57.3867 55.4279 52.8445 51.8474 50.8295 48.9535 60.8238 45.7586 57.4477 52.1976 35.7131 41.1329 33.9754 31.0304 29.5456 28.7542
threshold=5.6042500000000013 3.5523000000000002 1.2180818277191525 1.1933997104207925 7.8245500000000012 37.975000000000001 34.455000000000005 1.2809773824031867 19.500000000000004 -117.77499999999999 -120.32499999999997 37.905000000000008 -122.35499999999998 1.38907629347811 37.945000000000007 1.0851050854752973 -122.31499999999998 -118.22499999999998 -117.13499999999998 34.045000000000009 -118.38499999999998 34.455000000000005 -118.30499999999999 -120.08499999999999 34.185000000000009 -122.20499999999998 33.885000000000012 27.500000000000004 4.0768000000000013 -121.49499999999999
decision_type=2 2 2 2 2 2 2 2 2 2 2 2 2 2 2 2 2 2 2 2 2 2 2 2 2 2 2 2 2 2
left_child=1 3 8 5 7 12 9 -2 -3 19 11 16 -1 14 17 -10 -8 24 21 20 -5 22 -14 -23 -4 -26 -22 -9 -17 -15
right_child=4 2 13 6 -6 -7 10 27 15 -11 -12 -13 18 29 -16 28 -18 -19 -20 -21 26 23 -24 -25 25 -27 -28 -29 -30 -31
leaf_value=0.045875168479578475 0.046798080546571044 0.0053091417374351709 0.032725133697673485 0.053151239016476809 0.058847900689409462 -0.021696783717491775 0.019460380667688248 0.01816258561151032 0.053958932614754429 -0.023490679533430533 -0.035661611127813832 -0.026733983027018911 0.032145287710895289 0.0043434317211433846 -0.0099079390931789517 0.012323958907080323 -0.013639731869507061 0.0001569285052874596 -0.023283601567950535 0.0023473912614449264 -0.0022005198218439871 0.002195412257276372 0.0021384852966719169 -0.040201458539609075 0.032904202519140766 0.0061179629995810484 -0.019643072047735525 0.036039171284534523 0.034514191416787056 -0.0098126282411453002
leaf_weight=93 503 355 253 34 616 401 139 903 242 1047 911 1314 268 464 493 247 910 909 172 849 394 359 394 91 179 719 958 332 382 1581
leaf_count=93 503 355 253 34 616 401 139 903 242 1047 911 1314 268 464 493 247 910 909 172 849 394 359 394 91 179 719 958 332 382 1581
internal_value=-2.59861e-11 -0.00622655 0.00540848 -0.0143574 0.0374493 -0.00104133 -0.0179687 0.0298649 0.0254252 -0.0123339 -0.0236174 -0.018974 0.00497381 7.12805e-05 0.00541565 0.033624 -0.00925373 0.0090829 0.00201132 -0.00710738 -0.0128989 0.00592385 0.0142863 -0.00637818 0.0161322 0.0114573 -0.01456 0.0229683 0.0258004 -0.00660069
internal_weight=16512 14158 5824 8334 2354 1778 6556 1738 1226 3282 3274 2363 1377 4598 2553 871 1049 2060 1284 2235 1386 1112 662 450 1151 898 1352 1235 629 2045
internal_count=16512 14158 5824 8334 2354 1778 6556 1738 1226 3282 3274 2363 1377 4598 2553 871 1049 2060 1284 2235 1386 1112 662 450 1151 898 1352 1235 629 2045
is_linear=0
shrinkage=0.05


Tree=16
num_leaves=31
num_cat=0
split_feature=0 0 0 5 5 8 1 1 7 6 6 7 6 7 6 7 6 7 6 7 6 7 0 0 7 0 7 9 5 6
split_gain=1397.76 351.494 306.379 246.729 116.64 91.3018 72.65 70.6723 66.0881 83.1737 69.1906 82.841 83.3523 77.3597 46.0833 44.4414 61.7733 42.5787 41.0019 38.4276 40.7487 36.8311 36.7177 35.9398 34.2206 33.8176 31.7413 38.8362 29.5801 29.3049
threshold=4.6002500000000008 6.2980000000000009 2.5761500000000006 1.1712374744461631 1.3336585181780392 0.30342510953978813 18.500000000000004 24.500000000000004 -122.38499999999998 38.415000000000006 34.455000000000005 -120.00499999999998 37.595000000000006 -118.28499999999998 38.305000000000007 -118.30499999999999 34.165000000000006 -122.40499999999999 34.165000000000006 -122.24499999999999 37.505000000000003 -121.87499999999999 1.8845500000000002 7.6713000000000013 -118.37499999999999 9.2834000000000021 -117.55499999999999 3.7924061458717837 1.2939816224795633 33.905000000000008
decision_type=2 2 2 2 2 2 2 2 2 2 2 2 2 2 2 2 2 2 2 2 2 2 2 2 2 2 2 2 2 2
left_child=2 4 5 7 15 22 25 -4 9 -5 13 12 21 28 17 16 -2 -9 24 -18 -21 -12 -1 -8 -19 -3 27 -15 -10 -28
right_child=1 6 3 8 -6 -7 23 14 10 -11 11 -13 -14 26 -16 -17 19 18 -20 20 -22 -23 -24 -25 -26 -27 29 -29 -30 -31
leaf_value=-0.030178859963713472 0.054982918873204348 0.023521073072941767 0.001730910070708891 0.024663962774026101 0.0049670165088298995 -0.0034454578882353172 0.042285188773142086 0.055451956687907339 0.022425561720336617 -0.016387231163104476 0.01886370151927615 -0.032547759825511322 -0.017329782466789338 -0.0085952967193322887 -0.020743908738607871 0.011787053027120215 0.041397802485785201 0.056391498176702137 0.0082583215535137131 0.027544355652301025 -0.0017318122335988546 -0.0053479273527232305 -0.019407574803317493 0.061635952554918806 0.024078202839793911 0.05999520890213348 -0.0096775687724879079 0.0087666612292027664 0.0024148910362241996 -0.029153452789186376
leaf_weight=1220 207 450 512 339 1649 704 487 122 287 194 263 527 1360 1266 51 452 221 116 269 312 192 390 2251 473 279 74 613 432 518 282
leaf_count=1220 207 450 512 339 1649 704 487 122 287 194 263 527 1360 1266 51 452 221 116 269 312 192 390 2251 473 279 74 613 432 518 282
internal_value=-2.28227e-11 0.0237062 -0.00892713 -0.00308832 0.0139499 -0.0198635 0.0436461 0.0163633 -0.00714337 0.00972225 -0.00865725 -0.0148999 -0.0102797 -0.00399088 0.0253141 0.0246528 0.0308924 0.0283026 0.0233143 0.0240141 0.0163915 0.00440346 -0.0231935 0.0518195 0.0335677 0.028672 -0.0081944 -0.00417812 0.00954913 -0.0158141
internal_weight=16512 4517 11995 7820 3033 4175 1484 1349 6471 533 5938 2540 2013 3398 837 1384 932 786 664 725 504 653 3471 960 395 524 2593 1698 805 895
internal_count=16512 4517 11995 7820 3033 4175 1484 1349 6471 533 5938 2540 2013 3398 837 1384 932 786 664 725 504 653 3471 960 395 524 2593 1698 805 895
is_linear=0
shrinkage=0.05


Tree=17
num_leaves=31
num_cat=0
split_feature=0 0 5 0 6 8 5 7 6 7 7 1 0 0 6 7 7 6 7 4 5 1 6 0 5 1 7 0 5 7
split_gain=1268.86 357.11 236.422 205.335 99.6821 77.6619 77.1496 77.1407 52.4522 92.4824 57.5024 52.4426 51.3848 48.0086 43.6124 42.0429 37.7891 29.7133 33.8547 29.2332 28.6824 28.0641 26.8252 26.3515 25.9418 25.9405 24.2837 23.931 23.9283 23.3151
threshold=5.1385500000000013 2.8324500000000001 1.2378282349525065 6.5924500000000004 37.935000000000009 0.27334863287933758 1.2793280433442271 -117.99499999999999 34.155000000000008 -122.31499999999998 -118.37499999999999 18.500000000000004 3.7145000000000006 2.1102000000000003 33.685000000000009 -122.27499999999999 -117.15499999999999 37.995000000000012 -117.79499999999999 4.9663289649179552 1.206268373011113 16.500000000000004 37.765000000000008 9.2834000000000021 1.4113158589007406 20.500000000000004 -122.35499999999998 7.6713000000000013 1.4316810540836189 -117.13499999999998
decision_type=2 2 2 2 2 2 2 2 2 2 2 2 2 2 2 2 2 2 2 2 2 2 2 2 2 2 2 2 2 2
left_child=1 5 4 6 7 13 25 8 10 22 -3 23 -4 -1 16 -14 -9 18 -17 -13 -15 -8 -10 -5 29 -2 -6 -21 -23 -7
right_child=3 2 12 11 26 24 21 14 9 -11 -12 19 15 20 -16 17 -18 -19 -20 27 -22 28 -24 -25 -26 -27 -28 -29 -30 -31
leaf_value=-0.02769112721792906 0.017610081470269212 0.057880694363172162 -0.010798042442123663 0.024163435986617108 0.0088302265024349964 0.0020858666248577923 0.0012472790786385848 0.022842890692786694 0.025924133222524522 0.007717929797754236 0.02314123570004846 -0.008136634118854999 0.016300142731620695 -0.0053958709771867557 -0.019117311169181698 0.0016521390683293157 -0.017055501442770533 -0.017948526877750594 -0.012215430576115254 0.042899439611101334 -0.019080507716998128 0.02180956817761481 0.059861758422851567 0.056995445640279432 -0.01391950725986706 0.040763079773655786 -0.020150784374104683 0.060507333897160169 0.005151453516224311 -0.027456688036437374
leaf_weight=1497 174 198 2571 351 104 685 428 222 109 696 299 20 307 486 176 1991 81 304 565 334 1805 683 125 74 747 397 237 457 315 74
leaf_count=1497 174 198 2571 351 104 685 428 222 109 696 299 20 307 486 176 1991 81 304 565 334 1805 683 125 74 747 397 237 457 315 74
internal_value=-5.06438e-11 -0.00683908 -0.000162675 0.0280904 0.0135858 -0.0169092 0.0181771 0.0180402 0.0238681 0.0168604 0.0369811 0.0441072 -0.00554658 -0.0207276 0.000678454 -0.0012834 0.012177 -0.00317086 -0.00141327 0.0515629 -0.0161775 0.0119583 0.0440532 0.0298801 -0.00730468 0.0337077 -0.011312 0.0530724 0.0165517 -0.000794435
internal_weight=16512 13279 7985 3233 2247 5294 1997 1906 1427 930 497 1236 5738 3788 479 3167 303 2860 2556 811 2291 1426 234 425 1506 571 341 791 998 759
internal_count=16512 13279 7985 3233 2247 5294 1997 1906 1427 930 497 1236 5738 3788 479 3167 303 2860 2556 811 2291 1426 234 425 1506 571 341 791 998 759
is_linear=0
shrinkage=0.05


Tree=18
num_leaves=31
num_cat=0
split_feature=0 0 5 5 0 0 1 5 8 5 7 6 7 7 8 6 6 7 6 6 9 6 6 1 9 7 1 4 7 7
split_gain=1148.87 393.341 192.591 123.089 115.464 75.1119 68.8757 68.1211 61.0851 53.5749 47.1963 74.0036 66.7038 53.3286 42.9975 42.5097 42.1776 40.3088 38.534 34.88 32.6942 32.1109 27.6481 24.6748 24.3651 27.4579 23.2692 22.098 22.0063 21.9036
threshold=5.5675500000000007 3.5523000000000002 1.2378282349525065 1.1432128240296662 7.8245500000000012 2.5209500000000005 19.500000000000004 1.3449986063932118 0.35274553280292159 1.1162781925240242 -121.87499999999999 34.665000000000006 -118.22499999999998 -120.19499999999998 0.23074972694648155 37.985000000000007 37.275000000000013 -117.21499999999999 37.905000000000008 35.335000000000008 4.1336410951331839 37.955000000000005 37.995000000000012 27.500000000000004 4.3472040316437512 -117.75499999999998 47.500000000000007 5.7791979195074932 -117.49499999999999 -117.35499999999998
decision_type=2 2 2 2 2 2 2 2 2 2 2 2 2 2 2 2 2 2 2 2 2 2 2 2 2 2 2 2 2 2
left_child=1 3 6 15 7 8 -3 21 19 -8 18 12 20 16 -7 17 -13 23 -4 29 -12 -2 -11 -1 25 -14 -16 -25 -26 -5
right_child=4 2 10 5 -6 14 9 -9 -10 22 11 13 24 -15 26 -17 -18 -19 -20 -21 -22 -23 -24 27 28 -27 -28 -29 -30 -31
leaf_value=0.001908390208457907 0.03867124862223327 0.0026032822130823675 0.016919774991411802 -0.012655503894435694 0.050541887273850866 -0.013971830704265829 0.043571692992570132 0.016210428042270776 0.003450747318379581 0.022541976775405131 0.0057737230749549083 0.014134671284381541 -0.0028893586473082533 -0.036912939416028433 -0.004576872293475461 -0.017433088146234781 -0.015588230197631928 -0.014851582464595725 -0.00473906144993158 -0.027341763909537489 0.028017810467281381 0.0042094778883069554 -0.010080965680794585 -0.02117884804404551 0.015789767678781246 -0.01873598953502046 0.021759143038846865 0.022595469135049624 -0.0046348730595831078 -0.025666370058838692
leaf_weight=360 781 403 590 1028 616 2451 331 945 250 663 453 155 841 224 1232 220 519 175 315 1613 260 74 72 31 244 405 90 412 287 472
leaf_count=360 781 403 590 1028 616 2451 331 945 250 663 453 155 841 224 1232 220 519 175 315 1613 260 74 72 31 244 405 90 412 287 472
internal_value=-1.66466e-11 -0.00546016 0.00458476 -0.0124051 0.031857 -0.0148948 0.0202116 0.0254626 -0.0203283 0.0268684 -0.00076251 -0.00347205 0.000965701 -0.0157772 -0.0100518 0.00242529 -0.00875284 0.00689242 0.00938106 -0.0222379 0.0138852 0.0356886 0.0193463 0.0116311 -0.00421808 -0.00804015 -0.00278395 0.0195323 0.00475046 -0.0167496
internal_weight=16512 14096 5762 8334 2416 7136 1469 1800 3363 1066 4293 3388 2490 898 3773 1198 674 978 905 3113 713 855 735 803 1777 1246 1322 443 531 1500
internal_count=16512 14096 5762 8334 2416 7136 1469 1800 3363 1066 4293 3388 2490 898 3773 1198 674 978 905 3113 713 855 735 803 1777 1246 1322 443 531 1500
is_linear=0
shrinkage=0.05


Tree=19
num_leaves=31
num_cat=0
split_feature=0 0 0 5 5 8 1 1 1 0 7 6 7 5 7 6 1 6 7 1 5 6 7 7 7 9 6 3 1 6
split_gain=1043.76 273.726 217.996 177.726 95.6607 70.4799 58.6037 53.8845 53.4325 46.1042 38.7745 35.9076 79.8419 54.1373 50.5543 48.9491 35.8092 35.0736 34.0137 31.6387 34.5997 30.6289 29.3976 26.2836 25.8719 24.3434 23.9067 23.0943 22.9396 22.3184
threshold=4.5302000000000016 6.2980000000000009 2.5761500000000006 1.1712374744461631 1.2741916741240964 0.30342510953978813 29.500000000000004 47.500000000000007 24.500000000000004 9.2834000000000021 -122.40499999999999 34.455000000000005 -121.645 1.4465172254562779 -117.68499999999999 38.675000000000004 16.500000000000004 37.815000000000005 -117.68499999999999 21.500000000000004 1.1211935300951972 35.335000000000008 -119.88499999999998 -118.35499999999998 -120.63499999999998 4.1606236488728827 37.935000000000009 1.0339098038313825 33.500000000000007 33.615000000000002
decision_type=2 2 2 2 2 2 2 2 2 2 2 2 2 2 2 2 2 2 2 2 2 2 2 2 2 2 2 2 2 2
left_child=2 4 5 8 19 21 9 11 -4 -3 -9 13 15 14 -5 -13 -6 27 25 -2 -21 23 -14 -1 -23 -18 -27 -10 -29 -16
right_child=1 6 3 7 16 -7 -8 10 17 -11 -12 12 22 -15 29 -17 18 -19 -20 20 -22 24 -24 -25 -26 26 -28 28 -30 -31
leaf_value=0.0043392601272353205 0.011888760477288566 0.024989403756861723 0.00089356836540694859 0.0069937384264304406 -0.0037756367826876722 -0.002704125265199764 0.050613026729022917 0.032541420277085724 0.011718998693851467 0.054473185173119422 0.00047047009773703522 0.0020159745039361552 -0.014838647852689133 -0.012318372885657833 -0.0022718453827434153 -0.024429310065301323 0.004387345119679551 -0.0010177583087721028 -0.012088504569253882 0.056062619531323681 0.026070344826427779 -0.020285915506570842 -0.029879951219724418 -0.017051944014362708 -0.032735171952351393 0.020686432003747007 -0.0019098033112249454 0.018797900065894903 0.040979288490361553 -0.02095225405269726
leaf_weight=160 293 774 503 1270 637 704 550 137 194 160 302 1025 1005 1212 382 211 582 142 156 119 501 1294 480 1401 616 804 137 194 292 275
leaf_count=160 293 774 503 1270 637 704 550 137 194 160 302 1025 1005 1212 382 211 582 142 156 119 501 1294 480 1401 616 804 137 194 292 275
internal_value=2.40077e-11 0.0198904 -0.00794504 -0.00291573 0.0117216 -0.0171291 0.0376649 -0.006417 0.0137292 0.0300402 0.0104789 -0.00768276 -0.0118866 -0.00403872 0.00116883 -0.00249855 0.00631813 0.0215836 0.0101476 0.0254284 0.0318269 -0.0200548 -0.0197005 -0.0148594 -0.024301 0.0124253 0.0173967 0.0263033 0.032125 -0.0100909
internal_weight=16512 4713 11799 7624 3229 4175 1484 6299 1325 934 439 5860 2721 3139 1927 1236 2316 822 1679 913 620 3471 1485 1561 1910 1523 941 680 486 657
internal_count=16512 4713 11799 7624 3229 4175 1484 6299 1325 934 439 5860 2721 3139 1927 1236 2316 822 1679 913 620 3471 1485 1561 1910 1523 941 680 486 657
is_linear=0
shrinkage=0.05


Tree=20
num_leaves=31
num_cat=0
split_feature=0 0 5 0 5 5 0 8 1 8 5 5 6 7 1 6 4 6 7 0 7 7 6 7 0 6 7 1 8 3
split_gain=943.787 288.047 169.305 125.741 97.065 67.416 65.2035 50.1689 46.2252 44.536 41.8784 40.5116 34.9522 37.7809 34.5112 32.2651 30.4918 27.6668 41.7509 27.1367 26.3255 24.6321 23.459 22.687 21.523 21.0759 29.6772 20.5965 20.0876 19.1187
threshold=5.3078500000000011 3.4550500000000004 1.2229377246200348 6.9317000000000002 1.1119071544764096 1.395845566957328 2.2213000000000007 0.23074972694648155 19.500000000000004 0.35274553280292159 1.3640352388416692 1.0355614099377108 37.955000000000005 -118.02499999999999 21.500000000000004 38.545000000000009 5.1789666414329583 37.815000000000005 -118.24499999999999 4.1408500000000013 -122.33499999999999 -122.38499999999998 34.145000000000003 -118.425 9.2834000000000021 37.635000000000012 -117.90499999999999 46.500000000000007 0.17022928708427035 1.102428616035805
decision_type=2 2 2 2 2 2 2 2 2 2 2 2 2 2 2 2 2 2 2 2 2 2 2 2 2 2 2 2 2 2
left_child=1 4 8 5 17 12 9 -8 -3 -6 15 -10 13 29 24 20 -16 18 22 -13 -4 27 23 -1 -5 26 -22 -9 -21 -2
right_child=3 2 10 14 6 -7 7 21 11 -11 -12 19 -14 -15 16 -17 -18 -19 -20 28 25 -23 -24 -25 -26 -27 -28 -29 -30 -31
leaf_value=0.072006513857666196 0.03111075431966084 0.0039495368722967999 0.02401479269130587 0.022639992877198013 -0.022243576388233623 0.0056020832629478613 -0.014349007635738625 -0.00072837963924501784 0.049474977679759058 0.0018351626251491586 -0.0061385808355589461 0.011222939498414693 0.00035416531496711319 0.012509873965054111 -0.008228818683520607 -0.015136395585790708 0.050493382992262192 -0.011650216546404409 -0.0051413979123134425 0.0012670374998190214 0.010762997437791456 -0.0050675838146537772 0.010776222261853353 0.024542020154713663 0.050036907053374227 -0.0082023555311929366 -0.0056142295643108707 0.04453855878970725 0.034387872640426004 0.055439781199035414
leaf_weight=34 717 363 177 302 2245 656 2753 54 143 210 2339 391 124 279 23 207 569 220 303 53 1024 1727 252 97 94 303 379 47 336 91
leaf_count=34 717 363 177 302 2245 656 2753 54 143 210 2339 391 124 279 23 207 569 220 303 53 1024 1727 252 97 94 303 379 47 336 91
internal_value=-1.80938e-11 -0.00546553 0.00309461 0.0261446 -0.0116253 0.0185113 -0.0136089 -0.0100853 0.0190655 -0.0201839 -0.00154269 0.0250104 0.0255042 0.0283732 0.040569 0.00360076 0.0482119 0.00377871 0.00872677 0.0205252 0.00566055 -0.00366397 0.0196982 0.036861 0.0291433 0.00375627 0.00633893 0.0203364 0.0298753 0.0338508
internal_weight=16512 13657 5715 2855 7942 1867 7036 4581 1286 2455 4429 923 1211 1087 988 2090 592 906 686 780 1883 1828 383 131 396 1706 1403 101 389 808
internal_count=16512 13657 5715 2855 7942 1867 7036 4581 1286 2455 4429 923 1211 1087 988 2090 592 906 686 780 1883 1828 383 131 396 1706 1403 101 389 808
is_linear=0
shrinkage=0.05


Tree=21
num_leaves=31
num_cat=0
split_feature=0 0 5 6 7 0 5 7 6 7 7 6 1 0 6 7 6 6 7 6 7 6 6 7 1 5 7 6 5 6
split_gain=857.756 223.846 183.8 143.031 97.4811 89.588 79.6516 69.2068 73.9258 99.5902 72.4635 50.2387 49.1723 44.9694 44.1561 37.1966 59.9748 36.23 33.1037 34.6504 32.2723 32.1138 30.7265 57.3996 29.5672 26.6861 26.5932 28.8616 25.1415 24.3215
threshold=4.5302000000000016 6.2980000000000009 1.2488717804458398 37.955000000000005 -122.40499999999999 2.5365500000000005 1.3336585181780392 -117.15499999999999 34.455000000000005 -120.56499999999998 -118.30499999999999 37.635000000000012 33.500000000000007 9.2834000000000021 35.335000000000008 -118.35499999999998 34.165000000000006 34.155000000000008 -122.24499999999999 37.505000000000003 -117.55499999999999 33.765000000000008 37.925000000000004 -122.24499999999999 27.500000000000004 1.4190450782465118 -118.37499999999999 34.045000000000009 0.94318278932315325 34.015000000000008
decision_type=2 2 2 2 2 2 2 2 2 2 2 2 2 2 2 2 2 2 2 2 2 2 2 2 2 2 2 2 2 2
left_child=2 6 3 4 -1 14 15 8 10 11 17 -10 13 -3 20 16 -2 26 -18 -20 29 24 23 -7 28 -25 -6 -28 -12 -4
right_child=1 12 5 -5 7 22 -8 -9 9 -11 21 -13 -14 -15 -16 -17 18 -19 19 -21 -22 -23 -24 25 -26 -27 27 -29 -30 -31
leaf_value=0.040507084591864931 0.050869770261555751 0.023482635250588232 -0.016355060557807572 -0.015603585841884558 0.051649302878086605 0.018576424032669337 0.0034606739344918702 -0.016956629216809072 0.020695645921011668 -0.031065505357815867 -0.03492318585966573 -0.0064409347951693181 0.048284669955662475 0.050639852623225547 -0.025538980169120609 0.008587662605942091 0.034448352561795993 0.012309427840777777 0.02216396135317214 -0.0042690605113087868 -0.024354238043151351 -0.0037715773102543165 -0.015667534174484084 -0.003287640886219103 0.03490367568738293 -0.011347195247247321 0.001288902361289059 0.041992544485073467 0.012285343446439077 -0.001486931264886953
leaf_weight=208 183 866 513 873 186 229 1758 317 330 235 33 353 433 185 1266 527 238 209 321 202 443 426 961 2147 136 1969 76 102 194 593
leaf_count=208 183 866 513 873 186 229 1758 317 330 235 33 353 433 185 1266 527 238 209 321 202 443 426 961 2147 136 1969 76 102 194 593
internal_value=1.6766e-11 0.0180313 -0.00720242 0.00207057 0.00757129 -0.0114022 0.0106441 0.00493339 0.00797687 -0.00298963 0.0153684 0.00667044 0.0341048 0.0282629 -0.0186121 0.019229 0.0251697 0.0289016 0.0189895 0.0119546 -0.0129508 0.00554005 -0.00757702 -0.00578762 0.0164677 -0.00714315 0.0384285 0.0246135 0.00542243 -0.00838327
internal_weight=16512 4713 11799 3678 2805 8121 3229 2597 2280 918 1362 683 1484 1051 2815 1471 944 573 761 523 1549 789 5306 4345 363 4116 364 178 227 1106
internal_count=16512 4713 11799 3678 2805 8121 3229 2597 2280 918 1362 683 1484 1051 2815 1471 944 573 761 523 1549 789 5306 4345 363 4116 364 178 227 1106
is_linear=0
shrinkage=0.05


Tree=22
num_leaves=31
num_cat=0
split_feature=0 0 5 5 6 9 7 6 1 7 1 7 7 6 7 7 5 6 6 5 7 9 0 7 6 6 7 6 7 1
split_gain=778.509 275.465 137.132 97.9145 79.8379 76.3043 55.3783 51.402 47.9742 46.2697 45.0704 44.0996 39.8182 42.0324 59.2596 44.7948 39.5514 34.7669 34.6196 34.0982 29.6717 28.1094 28.0983 24.8939 24.4981 24.1849 32.0043 23.8458 23.8112 23.3319
threshold=5.6042500000000013 3.6554500000000005 1.2180818277191525 1.2488717804458398 37.955000000000005 5.3790918775513008 -122.35499999999998 34.455000000000005 32.500000000000007 -117.79499999999999 16.500000000000004 -120.08499999999999 -117.13499999999998 34.455000000000005 -120.08499999999999 -118.30499999999999 1.3640352388416692 34.045000000000009 37.905000000000008 1.0278023284470195 -118.37499999999999 3.9576182556932173 9.2834000000000021 -122.31499999999998 37.635000000000012 37.925000000000004 -118.22499999999998 34.165000000000006 -118.16499999999998 26.500000000000004
decision_type=2 2 2 2 2 2 2 2 2 2 2 2 2 2 2 2 2 2 2 2 2 2 2 2 2 2 2 2 2 2
left_child=1 3 10 4 6 8 -1 9 -2 17 -3 18 13 15 24 -8 25 20 23 -12 -5 -10 29 -9 -15 26 27 -4 -22 -7
right_child=5 2 16 7 -6 22 12 11 21 -11 19 -13 -14 14 -16 -17 -18 -19 -20 -21 28 -23 -24 -25 -26 -27 -28 -29 -30 -31
leaf_value=0.034242895609153001 0.014409522322760876 0.00065625866186683592 0.030508989628780982 0.049095303707179572 -0.015955158887372433 0.024205397245906059 0.024037956890160712 0.013742755846552818 -0.011995531467630738 -0.018116318623902752 0.051170890099179439 -0.028452439536042037 -0.017514335118398509 0.014917810126327169 -0.030349162109972291 0.0018272897711120032 -0.0040525654977188134 0.0031793719320958955 -0.020617744443473751 0.021705703040657508 -0.015525640499416996 0.037375020556173345 0.052873647901270374 -0.010650100241449495 -0.0071292717234084845 -0.0057917255042585093 0.00013857081643022567 0.01035691639519864 -0.0014338901078280997 0.044731132517531594
leaf_weight=133 1091 230 183 21 759 331 373 119 31 974 113 780 255 234 180 580 2269 813 1097 749 894 412 251 864 273 378 694 742 451 238
leaf_count=133 1091 230 183 21 759 331 373 119 31 974 113 780 255 234 180 580 2269 813 1097 749 894 412 251 864 273 378 694 742 451 238
internal_value=2.95946e-11 -0.00442695 0.00451109 -0.00986899 -0.00212207 0.0266256 0.00305511 -0.0134597 0.020044 -0.00905679 0.0203213 -0.0183136 0.000866205 0.00372415 -0.0057036 0.0105204 0.000464042 -0.00500724 -0.0145115 0.0255683 -0.00987965 0.0339202 0.0389381 -0.00769715 0.0030463 0.00559583 0.00825457 0.0143438 -0.0108005 0.0327909
internal_weight=16512 14158 5358 8800 2787 2354 2028 6013 1534 3153 1092 2860 1895 1640 687 953 4266 2179 2080 862 1366 443 820 983 507 1997 1619 925 1345 569
internal_count=16512 14158 5358 8800 2787 2354 2028 6013 1534 3153 1092 2860 1895 1640 687 953 4266 2179 2080 862 1366 443 820 983 507 1997 1619 925 1345 569
is_linear=0
shrinkage=0.05


Tree=23
num_leaves=31
num_cat=0
split_feature=0 0 5 5 6 7 0 1 7 6 7 7 0 1 6 7 6 6 7 6 7 7 5 6 7 6 1 6 7 6
split_gain=709.232 231.413 117.431 104.083 99.3939 69.366 59.4046 50.569 49.3885 51.7013 71.3282 55.3073 41.3358 37.5424 36.9003 35.1645 37.7177 33.6489 32.3242 28.5607 26.4665 26.3277 25.4101 24.0398 39.5954 22.8996 22.3875 22.7061 20.8609 27.8507
threshold=4.1408500000000013 6.1391500000000008 1.2488717804458398 1.2378282349525065 37.955000000000005 -122.40499999999999 2.5209500000000005 33.500000000000007 -117.145 34.455000000000005 -120.56499999999998 -118.30499999999999 9.2834000000000021 21.500000000000004 35.335000000000008 -122.22499999999998 37.975000000000001 37.635000000000012 -117.77499999999999 34.165000000000006 -118.37499999999999 -117.55499999999999 1.1474145156851538 37.925000000000004 -122.24499999999999 37.615000000000002 27.500000000000004 33.765000000000008 -117.79499999999999 34.515000000000008
decision_type=2 2 2 2 2 2 2 2 2 2 2 2 2 2 2 2 2 2 2 2 2 2 2 2 2 2 2 2 2 2
left_child=2 3 4 13 5 -1 14 12 9 11 17 19 -3 -2 21 25 18 -11 -17 20 -7 -4 -15 24 -8 -5 -13 -28 29 -26
right_child=1 7 6 15 -6 8 23 -9 -10 10 -12 26 -14 22 -16 16 -18 -19 -20 -21 -22 -23 -24 -25 28 -27 27 -29 -30 -31
leaf_value=0.035559599239636086 0.0076895528004946884 0.020108370771162412 -0.0075969462654734907 0.046479433609713475 -0.014777408247866247 0.04776462662718118 0.016737092123526805 0.043283430154127778 -0.016248365951115201 0.017657859844662553 -0.027772318673946996 -0.0049544032102084145 0.045838422061170683 0.042018366984528377 -0.023374909863511237 0.0063874316806273677 -0.01523443584680418 -0.0060315577144319831 -0.0075017566200554497 0.0074019614501498595 0.019487437189006845 -0.0221481080568308 0.021456217348551087 -0.015435962075418025 -0.001230005127895772 0.012650338281395496 0.030128052906317961 0.0029115245021371682 -0.014228800233280546 -0.011691247650551738
leaf_weight=174 297 999 1083 62 840 165 182 486 296 282 228 376 185 241 1249 2121 294 320 522 152 166 436 399 826 1725 259 121 209 809 1008
leaf_count=174 297 999 1083 62 840 165 182 486 296 282 228 376 185 241 1249 2121 294 320 522 152 166 436 399 826 1725 259 121 209 809 1008
internal_value=-2.05078e-11 0.0139619 -0.00769103 0.00769543 9.4468e-05 0.0051135 -0.0112327 0.0297031 0.00282511 0.00562142 -0.00395502 0.0123064 0.0241287 0.0223813 -0.0170084 0.00347178 0.00175448 0.00506548 0.00364428 0.025344 0.0335833 -0.0117736 0.0291992 -0.00771903 -0.00600738 0.0191843 0.00338689 0.0128909 -0.00717607 -0.00508838
internal_weight=16512 5865 10647 4195 3329 2489 7318 1670 2315 2019 830 1189 1184 937 2768 3258 2937 602 2643 483 331 1519 640 4550 3724 321 706 330 3542 2733
internal_count=16512 5865 10647 4195 3329 2489 7318 1670 2315 2019 830 1189 1184 937 2768 3258 2937 602 2643 483 331 1519 640 4550 3724 321 706 330 3542 2733
is_linear=0
shrinkage=0.05


Tree=24
num_leaves=31
num_cat=0
split_feature=0 0 0 5 5 7 6 7 6 8 7 1 1 0 7 9 6 7 6 7 6 6 4 0 5 1 6 7 7 6
split_gain=643.443 163.027 130.695 121.207 60.5106 52.8363 88.8901 72.2624 59.0851 46.8621 40.2336 40.0041 32.6582 30.4358 27.9896 34.2161 29.9931 27.5731 27.1392 26.145 29.9205 26.9702 24.5048 24.4675 23.5696 23.0763 21.787 21.0263 19.1535 18.5519
threshold=4.8858000000000006 2.7016500000000003 6.5924500000000004 1.1292949038710753 1.2741916741240964 -121.87499999999999 34.515000000000008 -118.28499999999998 37.925000000000004 0.30679512430002714 -120.08499999999999 16.500000000000004 18.500000000000004 1.8845500000000002 -117.77499999999999 3.6714360905289873 33.635000000000012 -117.16499999999998 37.275000000000013 -122.43499999999999 37.615000000000002 37.765000000000008 4.9663289649179552 3.6670000000000003 1.3244869833459527 16.500000000000004 38.785000000000004 -117.20499999999998 -122.38499999999998 37.955000000000005
decision_type=2 2 2 2 2 2 2 2 2 2 2 2 2 2 2 2 2 2 2 2 2 2 2 2 2 2 2 2 2 2
left_child=1 9 4 11 29 8 7 24 19 13 18 -3 -4 -1 15 -9 17 -16 -8 21 -21 -5 -14 -13 -7 -6 28 -27 -10 -2
right_child=2 3 12 5 25 6 10 14 26 -11 -12 23 22 -15 16 -17 -18 -19 -20 20 -22 -23 -24 -25 -26 27 -28 -29 -30 -31
leaf_value=-0.02133033641853449 0.026270492236669316 -0.0041355161638079486 0.020174119452370659 0.016860573060375496 -0.0016943995454574694 0.019289741167620594 0.0040392328983618383 -0.0063536521585216485 0.010579026002598958 -0.00083463973068675663 -0.026883248917013408 0.014136461292990768 -0.017373637482523917 -0.011918462712524376 0.011319244378732373 0.0086546332476741556 -0.019731291744950818 -0.011102930285681108 -0.013958416926243259 0.018384776145727044 -0.0013308753065404968 0.057788056834486491 0.038666936204908242 0.032903953533666375 0.0032226557857199115 0.011943921275235837 -0.023101370212353881 -0.017225527064158367 -0.011142868218750461 -0.006247128862788544
leaf_weight=1235 657 197 425 137 551 442 267 1069 181 707 500 460 20 2821 206 589 542 410 972 378 392 57 791 279 472 1247 165 65 231 47
leaf_count=1235 657 197 425 137 551 442 267 1069 181 707 500 460 20 2821 206 589 542 410 972 378 392 57 791 279 472 1247 165 65 231 47
internal_value=5.28189e-12 -0.00539924 0.0180434 -0.00101484 0.0116116 -0.00327136 -0.00557558 -0.00122309 0.00490632 -0.0127136 -0.0149113 0.0158849 0.0314014 -0.0147843 -0.00518795 -0.001022 -0.0111527 -0.00360461 -0.01008 0.0124809 0.00834772 0.0288857 0.0372849 0.0212219 0.0109925 0.00689254 -0.00774857 0.0104988 -0.0016 0.0240996
internal_weight=16512 12709 3803 7946 2567 7010 5469 3730 1541 4763 1739 936 1236 4056 2816 1658 1158 616 1239 964 770 194 811 739 914 1863 577 1312 412 704
internal_count=16512 12709 3803 7946 2567 7010 5469 3730 1541 4763 1739 936 1236 4056 2816 1658 1158 616 1239 964 770 194 811 739 914 1863 577 1312 412 704
is_linear=0
shrinkage=0.05


Tree=25
num_leaves=31
num_cat=0
split_feature=0 0 5 5 9 6 7 6 7 7 6 6 7 1 5 7 6 7 7 6 5 6 7 5 7 6 7 7 6 6
split_gain=582.451 196.533 101.618 74.9764 65.8652 61.209 47.0591 39.8191 37.949 37.0957 41.301 36.1868 35.2043 34.1495 32.766 30.382 33.2795 44.9587 34.7005 30.2814 28.4204 28.113 29.585 26.9097 26.435 25.3182 28.3398 25.4101 24.3008 21.2873
threshold=5.5352000000000006 3.6554500000000005 1.2180818277191525 1.2488717804458398 5.3520042154576233 37.925000000000004 -122.31499999999998 34.455000000000005 -121.57499999999997 -117.94499999999998 37.955000000000005 38.855000000000011 -117.79499999999999 16.500000000000004 1.4280094692884442 -117.13499999999998 34.455000000000005 -120.08499999999999 -118.30499999999999 34.045000000000009 1.0278023284470195 37.905000000000008 -122.20499999999998 1.4214305783406107 -118.37499999999999 37.645000000000003 -117.73499999999999 -121.81499999999998 33.865000000000002 33.885000000000012
decision_type=2 2 2 2 2 2 2 2 2 2 2 2 2 2 2 2 2 2 2 2 2 2 2 2 2 2 2 2 2 2
left_child=1 3 13 5 9 6 -1 12 11 10 23 -9 19 -3 21 16 18 -18 -8 24 -15 22 -4 -2 -5 26 -6 -27 -28 -26
right_child=4 2 14 7 25 -7 15 8 -10 -11 -12 -13 -14 20 -16 -17 17 -19 -20 -21 -22 -23 -24 -25 29 27 28 -29 -30 -31
leaf_value=0.031175608287844127 0.028664685310033002 0.00027042486100949706 0.025047750433248302 0.046874306670257021 0.044016241396699726 -0.013616220067159679 0.021228767396122512 -0.0028060400050936869 -0.020513877365317571 0.0030779746889428947 -0.0083731866160592257 -0.022519579677981415 -0.015678473776919329 0.045374478357720432 -0.0062935034397427567 -0.015222048698467952 0.0027002630354855906 -0.026584780182585949 0.0016801510006992212 0.0033964332954758043 0.018442955840295445 -0.0070253533153215213 0.0039815387244376338 0.011537016374703784 0.00018302361229404762 0.027184671134083155 0.028978554239055439 -0.015643038310457109 -0.023008253970848665 -0.013679985701459544
leaf_weight=137 779 229 181 21 504 780 373 779 1749 396 111 332 974 113 1330 255 482 180 580 813 736 541 2104 325 390 178 114 43 28 955
leaf_count=137 779 229 181 21 504 780 373 779 1749 396 111 332 974 113 1330 255 482 180 580 813 736 541 2104 325 390 178 114 43 28 955
internal_value=-9.48925e-12 -0.00394602 0.00372621 -0.00850926 0.0223481 -0.00173022 0.00288915 -0.0116513 -0.0159235 0.016368 0.0206995 -0.00869703 -0.00777614 0.0174056 0.00017799 0.000816824 0.00334928 -0.00526244 0.00933139 -0.00424385 0.0220275 0.00322367 0.00565024 0.0236226 -0.0087911 0.0334599 0.0384574 0.0188517 0.0187276 -0.00966023
internal_weight=16512 14034 5234 8800 2478 2787 2007 6013 2860 1611 1215 1111 3153 1078 4156 1870 1615 662 953 2179 849 2826 2285 1104 1366 867 646 221 142 1345
internal_count=16512 14034 5234 8800 2478 2787 2007 6013 2860 1611 1215 1111 3153 1078 4156 1870 1615 662 953 2179 849 2826 2285 1104 1366 867 646 221 142 1345
is_linear=0
shrinkage=0.05


Tree=26
num_leaves=31
num_cat=0
split_feature=0 0 0 5 6 7 5 8 7 6 7 7 6 6 1 6 7 6 1 6 4 5 0 3 7 6 6 7 6 7
split_gain=530.202 125.214 122.242 102.19 64.0408 66.1143 57.268 43.035 35.0303 63.964 53.061 33.0262 33.7688 27.8824 27.2538 27.0084 24.9005 32.8809 23.3228 22.2256 21.5904 20.9691 20.2892 19.611 18.9954 23.3158 19.3051 19.1418 40.5896 23.0533
threshold=4.7003500000000011 2.5058500000000001 6.5924500000000004 1.2969700085072571 37.945000000000007 -122.35499999999998 1.2590821206178242 0.35274553280292159 -117.895 34.175000000000004 -118.37499999999999 -121.87499999999999 35.335000000000008 33.865000000000002 18.500000000000004 37.595000000000006 -117.77499999999999 37.955000000000005 21.500000000000004 37.765000000000008 5.1789666414329583 1.3920840298481878 1.8845500000000002 1.0357873809772944 -122.40499999999999 38.745000000000012 37.925000000000004 -121.28499999999998 34.665000000000006 -117.79499999999999
decision_type=2 2 2 2 2 2 2 2 2 2 2 2 2 2 2 2 2 2 2 2 2 2 2 2 2 2 2 2 2 2
left_child=1 7 6 4 5 19 18 22 9 10 -7 15 -13 -10 -4 -11 17 21 -2 -3 -16 -8 -1 -20 25 -5 27 -26 29 -29
right_child=2 3 14 24 -6 8 16 -9 13 11 -12 12 -14 -15 20 -17 -18 -19 23 -21 -22 -23 -24 -25 26 -27 -28 28 -30 -31
leaf_value=-0.019098759367155722 0.0086800118822004824 0.016366484648897311 0.018214888289514314 0.013459762531668985 -0.0086457002074296074 0.038941411807900297 0.016453954273243792 0.0048410864520170762 0.0014802749709270562 0.019897698416527169 0.011325994257198477 0.0047567649322004541 -0.020256380249676128 -0.021959192772360091 -0.013905819473059281 -0.0020775019714104324 -0.005447038358475962 -0.007740423871603396 0.018730735495166601 0.045889223896323106 0.035239684147481645 0.0050235283821471128 -0.011312407184690133 0.038553496022669081 0.0029889929763889842 -0.019582224978533177 -0.015708530393412065 -0.0019404711180486369 -0.019173513123350146 -0.011866382585797296
leaf_weight=1377 226 120 425 225 745 240 845 318 509 290 632 264 276 169 23 270 399 273 266 136 788 764 2132 235 497 70 615 1932 612 839
leaf_count=1377 226 120 425 225 745 240 845 318 509 290 632 264 276 169 23 270 399 273 266 136 788 764 2132 235 497 70 615 1932 612 839
internal_value=-7.11408e-12 -0.00526977 0.0152332 -0.0018685 0.00443293 0.00778585 0.00979361 -0.0127718 0.00544179 0.00881258 0.0189266 0.000794938 -0.00802773 -0.00436231 0.0284712 0.00930251 0.00589876 0.00830416 0.0220139 0.0320504 0.0338459 0.0110265 -0.0143679 0.0280288 -0.00667152 0.00561929 -0.00747815 -0.00617359 -0.00751968 -0.00494583
internal_weight=16512 12268 4244 8441 3651 2906 3008 3827 2650 1972 872 1100 540 678 1236 560 2281 1882 727 256 811 1609 3509 501 4790 295 4495 3880 3383 2771
internal_count=16512 12268 4244 8441 3651 2906 3008 3827 2650 1972 872 1100 540 678 1236 560 2281 1882 727 256 811 1609 3509 501 4790 295 4495 3880 3383 2771
is_linear=0
shrinkage=0.05


Tree=27
num_leaves=31
num_cat=0
split_feature=0 0 5 5 0 1 7 6 1 0 2 7 1 6 7 6 7 7 6 6 3 7 7 7 3 5 9 6 7 6
split_gain=481.769 157.431 83.7251 74.1558 62.4676 38.9418 35.8845 34.1127 33.24 32.6334 31.8782 31.2701 30.1372 26.8477 28.9412 24.8948 46.9213 40.3861 32.0205 22.7365 21.7977 21.2753 20.9882 20.4777 18.3284 23.8058 18.01 34.786 47.7048 17.93
threshold=4.1408500000000013 6.1391500000000008 1.1211935300951972 1.1956112772993011 2.3388500000000003 33.500000000000007 -122.20499999999998 37.615000000000002 51.500000000000007 9.2834000000000021 3.3028373846199512 -118.02499999999999 17.500000000000004 37.985000000000007 -117.21499999999999 34.455000000000005 -119.88499999999998 -118.28499999999998 37.925000000000004 37.615000000000002 1.057245482818002 -121.28499999999998 -122.40499999999999 -116.51499999999999 1.009512498586133 1.2590821206178242 4.7266232411119926 34.665000000000006 -120.19499999999998 33.925000000000004
decision_type=2 2 2 2 2 2 2 2 2 2 2 2 2 2 2 2 2 2 2 2 2 2 2 2 2 2 2 2 2 2
left_child=2 3 13 12 10 9 19 11 15 24 -4 26 -2 14 -1 17 18 -6 21 -5 -14 -17 -10 -19 -3 -26 -8 -28 -29 -13
right_child=1 5 4 6 8 -7 7 -9 22 -11 -12 29 20 -15 -16 16 -18 23 -20 -21 -22 -23 -24 -25 25 -27 27 28 -30 -31
leaf_value=0.012595987521910429 0.0045408914444397463 0.0078756863063580238 -0.00011078569458463086 0.042207394936424378 0.0071394128339121359 0.036407881241613697 0.0057331864697787189 -0.0099454434570987894 0.027823265099495249 0.038888414961009012 -0.016123628781777852 0.0016194270317095489 0.018448648492982288 -0.011264574765386757 -0.0099845307991862694 0.0044360674220816467 -0.022993646778001003 -0.0052855263469422358 -0.01195421916576749 0.01188871566218081 0.040494365010985654 -0.0099325250366177325 0.0012930105200820985 -0.030688960620815438 0.042293006724851062 0.016774692713849494 0.033631566989069085 0.021372002105150993 -0.038857176151126625 -0.012802321897721448
leaf_weight=885 173 408 355 77 745 486 1335 517 111 185 2497 692 232 194 169 759 524 2436 1273 314 217 390 227 82 113 478 179 96 50 313
leaf_count=885 173 408 355 77 745 486 1335 517 111 185 2497 692 232 194 169 759 524 2436 1273 314 217 390 227 82 113 478 179 96 50 313
internal_value=-3.95236e-12 0.0115072 -0.00633884 0.00633859 -0.00795451 0.0244906 0.00356492 0.00180843 -0.00526415 0.0195989 -0.0141304 0.00408864 0.0222716 0.00582912 0.00897539 -0.00609539 -0.00942739 -0.00308709 -0.00649233 0.0178594 0.0291033 -0.000441001 0.0100056 -0.0061128 0.0160267 0.0216538 0.00830284 0.0188582 0.000745571 -0.00287212
internal_weight=16512 5865 10647 4195 9399 1670 3573 3182 6547 1184 2852 2665 622 1248 1054 6209 2946 3263 2422 391 449 1149 338 2518 999 591 1660 325 146 1005
internal_count=16512 5865 10647 4195 9399 1670 3573 3182 6547 1184 2852 2665 622 1248 1054 6209 2946 3263 2422 391 449 1149 338 2518 999 591 1660 325 146 1005
is_linear=0
shrinkage=0.05


Tree=28
num_leaves=31
num_cat=0
split_feature=0 0 5 0 6 7 5 6 7 7 6 7 6 7 7 6 3 6 7 7 5 5 6 6 7 6 7 5 7 7
split_gain=436.373 134.686 92.8792 61.8451 48.352 48.0478 41.0881 40.1001 51.8536 41.8002 40.8597 32.2113 35.8943 62.4816 28.1745 29.8769 25.9465 24.1108 38.2749 23.6075 23.3488 23.2305 22.5146 22.3273 24.0996 50.9027 24.9389 20.5617 19.8012 19.5606
threshold=5.3078500000000011 2.9379500000000003 1.2741916741240964 7.6713000000000013 37.905000000000008 -122.29499999999999 1.395845566957328 35.335000000000008 -118.30499999999999 -121.69499999999998 38.855000000000011 -117.15499999999999 34.175000000000004 -118.36499999999999 -121.61499999999999 35.335000000000008 0.94776841132827172 33.675000000000004 -118.05499999999999 -116.44499999999998 1.433373896381011 1.1805144296381453 37.765000000000008 37.905000000000008 -121.28499999999998 34.665000000000006 -117.75499999999998 1.2507768551683129 -120.19499999999998 -122.29499999999999
decision_type=2 2 2 2 2 2 2 2 2 2 2 2 2 2 2 2 2 2 2 2 2 2 2 2 2 2 2 2 2 2
left_child=1 7 4 6 5 22 16 8 27 10 -9 12 13 -7 -14 -16 -2 -15 -19 -10 23 -18 -3 24 -4 26 -26 -1 -27 -23
right_child=3 2 20 -5 -6 11 -8 9 19 -11 -12 -13 14 17 15 -17 21 18 -20 -21 -22 29 -24 -25 25 28 -28 -29 -30 -31
leaf_value=0.021031754718879817 -0.0020105779083678501 0.017099518948167618 0.011354551035162287 0.030964254409179184 -0.006661892448207001 0.035199935143968714 0.0043760694193921094 -0.00030159627868695291 -0.0075665430531519032 -0.019008116733441251 -0.020691558784792122 -0.013898704611611638 0.0096509958184343263 0.021266861699978212 0.0030239596166903517 -0.027134789870440091 0.037884292163753087 0.012993968558609903 -0.013557109938903614 -0.029186825095606383 -0.0079383032078820404 0.038898614238804356 0.046532579871909847 -0.0088089633699413843 0.0068332912391278079 -0.0040813358576505801 -0.0063707891177461748 0.0011445535035713708 -0.027890748849156106 0.016107114776171754
leaf_weight=197 136 139 479 678 488 300 769 798 2186 1637 355 154 489 259 205 137 175 357 219 134 1912 104 122 704 1117 148 526 382 213 993
leaf_count=197 136 139 479 678 488 300 769 798 2186 1637 355 154 489 259 205 137 175 357 219 134 1912 104 122 704 1117 148 526 382 213 993
internal_value=1.06108e-11 -0.00371642 0.000479216 0.0177776 0.00767589 0.0106145 0.0136708 -0.00959281 -0.00547465 -0.0138719 -0.00657951 0.00812232 0.00984726 0.0156281 0.0019516 -0.00905718 0.0187473 0.00859636 0.00289903 -0.0088153 -0.00357006 0.0209666 0.0308575 -0.000949387 0.00127902 -0.00112925 0.00260606 0.00791101 -0.0181295 0.0182678
internal_weight=16512 13657 7968 2855 2869 2381 2177 5689 2899 2790 1153 2120 1966 1135 831 342 1408 835 576 2320 5099 1272 261 3187 2483 2004 1643 579 361 1097
internal_count=16512 13657 7968 2855 2869 2381 2177 5689 2899 2790 1153 2120 1966 1135 831 342 1408 835 576 2320 5099 1272 261 3187 2483 2004 1643 579 361 1097
is_linear=0
shrinkage=0.05


Tree=29
num_leaves=31
num_cat=0
split_feature=0 0 5 6 7 5 7 6 7 7 1 6 0 0 6 6 6 7 6 7 7 1 5 7 6 7 4 3 1 6
split_gain=397.207 110.623 86.9622 75.4796 60.5 46.2499 36.3613 52.9771 64.3934 38.3781 33.7346 32.3685 30.7237 27.5322 26.5047 25.9906 25.8569 25.35 28.2695 24.4376 22.6607 22.0936 21.5455 20.0859 37.2991 18.2991 20.0106 18.2799 19.1383 16.9782
threshold=4.4009500000000008 6.1391500000000008 1.284256396887993 37.935000000000009 -122.31499999999998 1.2180818277191525 -117.15499999999999 34.455000000000005 -120.56499999999998 -118.30499999999999 33.500000000000007 37.57500000000001 2.5209500000000005 9.2834000000000021 34.165000000000006 35.335000000000008 33.765000000000008 -122.20499999999998 37.615000000000002 -118.02499999999999 -117.70499999999998 27.500000000000004 0.94318278932315325 -118.41499999999998 34.045000000000009 -117.55499999999999 5.6472105679022233 0.95268038772812214 17.500000000000004 37.615000000000002
decision_type=2 2 2 2 2 2 2 2 2 2 2 2 2 2 2 2 2 2 2 2 2 2 2 2 2 2 2 2 2 2
left_child=2 5 3 4 -1 27 7 9 11 14 13 -9 15 -3 23 25 21 -7 19 -19 -18 22 -11 -6 -25 26 -4 -2 -29 -12
right_child=1 10 12 -5 6 17 -8 8 -10 16 29 -13 -14 -15 -16 -17 20 18 -20 -21 -22 -23 -24 24 -26 -27 -28 28 -30 -31
leaf_value=0.027580089701120469 -0.012727093655706907 0.014396816791864709 0.034449985367621505 -0.010618901788548102 0.042426836026855194 0.017908704366843938 -0.012243028817408089 0.014980830949432755 -0.022062264360439801 -0.033247941681607204 0.038496201526203387 -0.0059901765277511551 -0.0061188591107426381 0.035395781585090873 0.0051215733536302526 -0.018849332085956256 0.0018389417513798069 0.0087456688219608291 -0.010167511797007018 -0.0023028514338519798 -0.023247097568635487 0.028998559108367773 0.010156328258772107 -0.00092332189074219306 0.034870826340877188 -0.017665252767959102 -0.0063322843443148515 0.0058262640603539287 0.027521327666041259 0.016441035486774096
leaf_weight=255 41 999 31 1165 137 287 380 355 345 33 372 382 4483 185 215 1087 428 1302 389 813 114 144 214 129 167 403 1012 137 394 114
leaf_count=255 41 999 31 1165 137 287 380 355 345 33 372 382 4483 185 215 1087 428 1302 389 813 114 144 214 129 167 403 1012 137 394 114
internal_value=-1.04626e-11 0.0117116 -0.00513499 0.000321513 0.00418615 0.00648798 0.00222577 0.00429041 -0.00423432 0.0101245 0.0222308 0.00411119 -0.00860597 0.0176779 0.0194721 -0.0130078 0.00363233 0.00383349 0.00222024 0.00449865 -0.00343746 0.0134324 0.00435738 0.0265977 0.0192713 -0.00861647 -0.00512016 0.0194402 0.0219239 0.0333228
internal_weight=16512 5033 11479 4463 3298 3363 3043 2663 1082 1581 1670 737 7016 1184 648 2533 933 2791 2504 2115 542 391 247 433 296 1446 1043 572 531 486
internal_count=16512 5033 11479 4463 3298 3363 3043 2663 1082 1581 1670 737 7016 1184 648 2533 933 2791 2504 2115 542 391 247 433 296 1446 1043 572 531 486
is_linear=0
shrinkage=0.05


Tree=30
num_leaves=31
num_cat=0
split_feature=0 0 5 5 1 6 5 4 1 7 6 7 6 7 7 9 5 1 6 7 7 6 6 7 9 7 6 1 6 7
split_gain=360.64 136.89 66.9545 48.9129 38.7168 37.9534 33.947 29.808 29.5157 28.225 27.2615 31.538 26.9384 26.895 26.4697 24.9805 22.9296 22.6914 22.2705 27.8003 21.9722 19.4293 17.0962 30.674 17.7076 16.0681 28.7312 16.6555 16.0302 17.945
threshold=5.777400000000001 3.6554500000000005 1.328812209228188 1.2488717804458398 27.500000000000004 37.955000000000005 1.1211935300951972 4.9663289649179552 21.500000000000004 -122.40499999999999 34.715000000000011 -120.47499999999998 37.905000000000008 -117.15499999999999 -117.59499999999998 5.7580251241186238 1.5509434664242046 16.500000000000004 34.455000000000005 -120.56499999999998 -118.13499999999998 38.545000000000009 37.615000000000002 -122.40499999999999 4.8807692442033153 -122.33499999999999 37.645000000000003 17.500000000000004 33.705000000000005 -117.24499999999999
decision_type=2 2 2 2 2 2 2 2 2 2 2 2 2 2 2 2 2 2 2 2 2 2 2 2 2 2 2 2 2 2
left_child=1 3 6 5 15 8 17 -6 -1 -10 14 12 -12 21 16 -2 -5 -3 20 -20 -11 25 24 -24 -9 -8 27 -27 29 -22
right_child=4 2 -4 10 7 -7 13 22 9 18 11 -13 -14 -15 -16 -17 -18 -19 19 -21 28 -23 23 -25 -26 26 -28 -29 -30 -31
leaf_value=-0.0065632682084688894 0.010413938986326317 0.0020883150523316051 -0.0018781430529052946 0.00097529467959919379 -0.02845564959165843 -0.010777128277381502 0.021485854547822588 0.020983078502467833 0.030968357821607412 0.017352949546742963 -0.0029314797616150634 -0.020929056830992086 -0.014746938056309864 -0.017065166999641605 -0.013438171288467868 0.028272609258612261 -0.0090525572551090599 0.027818611301937263 0.0023832216763510494 -0.026160092973150313 0.031843130011111498 -0.010207648577800554 0.043191967321740049 -0.00093170943803636854 0.03871345415381916 -0.00031750938036190029 -0.0068982166317439579 0.013129645240069994 -0.011812089543290265 0.0001960753670503055
leaf_weight=639 1026 114 2964 1333 23 759 230 208 108 421 886 846 1059 115 893 242 996 345 380 110 63 140 62 108 436 290 291 1118 152 155
leaf_count=639 1026 114 2964 1333 23 759 230 208 108 421 886 846 1059 115 893 242 996 345 380 110 63 140 62 108 436 290 291 1118 152 155
internal_value=-1.46068e-11 -0.00282453 0.00328132 -0.00671493 0.0193316 -0.00123951 0.00906741 0.0276778 0.00233005 0.00642135 -0.00925276 -0.01287 -0.00936468 0.00646963 -0.00611936 0.0138223 -0.00331313 0.0214281 0.00435182 -0.00402446 0.00954066 0.00777775 0.0292639 0.0151605 0.0329869 0.00908306 0.00740405 0.01036 0.000651544 0.00934178
internal_weight=16512 14407 5607 8800 2105 2787 2643 837 2028 1389 6013 2791 1945 2184 3222 1268 2329 459 1281 490 791 2069 814 170 644 1929 1699 1408 370 218
internal_count=16512 14407 5607 8800 2105 2787 2643 837 2028 1389 6013 2791 1945 2184 3222 1268 2329 459 1281 490 791 2069 814 170 644 1929 1699 1408 370 218
is_linear=0
shrinkage=0.05


Tree=31
num_leaves=31
num_cat=0
split_feature=0 9 5 6 7 1 5 6 7 7 6 6 7 7 9 7 6 6 4 7 7 6 0 6 7 7 6 7 5 7
split_gain=328.091 109.379 60.9594 67.2297 52.2828 48.1884 36.8011 33.362 61.9857 46.2968 40.472 32.6585 56.2622 33.1024 25.5741 24.5711 24.3699 22.4837 32.4025 29.8001 26.8452 22.2357 21.8603 21.1726 21.0582 19.687 19.395 27.3073 20.4001 18.83
threshold=4.1408500000000013 4.7529913115824014 1.3336585181780392 38.475000000000001 -122.40499999999999 20.500000000000004 1.2137234067761928 34.455000000000005 -118.11499999999999 -120.08499999999999 37.635000000000012 37.645000000000003 -122.40499999999999 -117.15499999999999 4.2698073332944668 -117.77499999999999 37.885000000000012 34.515000000000008 4.9663289649179552 -120.63499999999998 -117.79499999999999 37.905000000000008 9.2834000000000021 34.045000000000009 -118.37499999999999 -118.16499999999998 33.685000000000009 -117.23499999999999 0.91967526233330332 -122.02499999999999
decision_type=2 2 2 2 2 2 2 2 2 2 2 2 2 2 2 2 2 2 2 2 2 2 2 2 2 2 2 2 2 2
left_child=2 6 3 4 -1 22 -2 8 14 10 -9 13 -13 29 -6 16 -8 18 -4 21 23 -19 -3 24 -20 -26 27 28 -10 -7
right_child=1 5 17 -5 7 11 15 9 26 -11 -12 12 -14 -15 -16 -17 -18 19 20 -21 -22 -23 -24 -25 25 -27 -28 -29 -30 -31
leaf_value=0.019754963046083998 0.016748622676258772 0.0066110986856519937 0.046300830910431932 -0.013162384166716213 0.0093808038977826677 0.044631091592359479 0.0053213777928157431 0.011107919584078207 -0.027641920372843742 -0.019882330740556044 -0.0074061394386491968 0.037281053127554149 -0.0024990324330026467 -0.01645362206121407 0.031120108452304531 -0.0096627347249243316 -0.0095494945952299213 -0.0027392625809876878 0.04105637391859835 -0.020937993025591854 -0.013923832331258596 -0.015259926644311429 0.033284326403268748 0.0026603319813545321 -0.012917045851133095 -0.00072615760642154152 -0.010486648602609297 -0.0048250785278017676 0.023475469905826551 0.026413990989295002
leaf_weight=352 464 898 29 990 847 169 2197 456 22 426 837 134 264 41 161 416 315 752 22 754 931 671 84 806 864 537 584 433 173 883
leaf_count=352 464 898 29 990 847 169 2197 456 22 426 837 134 264 41 161 416 315 752 22 754 931 671 84 806 864 537 584 433 173 883
internal_value=-7.03458e-12 0.00949613 -0.00523103 -0.00141736 0.0012924 0.017493 0.00366587 -0.000357464 0.00369169 -0.00558674 -0.000876819 0.0231573 0.0108943 0.0276227 0.0128531 0.00159265 0.0034566 -0.0089843 -0.00631018 -0.0129015 -0.006793 -0.00864324 0.00889272 -0.00381463 -0.0074821 -0.00824431 -0.00392766 0.00217178 0.0177084 0.0293405
internal_weight=16512 5865 10647 5281 4291 2473 3392 3939 2220 1719 1293 1491 398 1093 1008 2928 2512 5366 3189 2177 3160 1423 982 2229 1423 1401 1212 628 195 1052
internal_count=16512 5865 10647 5281 4291 2473 3392 3939 2220 1719 1293 1491 398 1093 1008 2928 2512 5366 3189 2177 3160 1423 982 2229 1423 1401 1212 628 195 1052
is_linear=0
shrinkage=0.05


Tree=32
num_leaves=31
num_cat=0
split_feature=0 0 5 5 6 5 5 7 6 7 6 6 7 4 7 3 6 7 1 6 7 7 6 7 7 6 6 7 6 6
split_gain=298.958 111.047 57.0636 40.669 39.36 33.0997 32.3712 30.162 25.1928 27.4546 30.2899 21.5982 22.0906 21.7226 21.588 21.2179 21.0968 20.5171 19.951 19.7197 19.8756 18.9081 21.2706 41.7951 17.3374 21.7437 17.1909 17.099 32.4928 23.5927
threshold=5.777400000000001 3.6554500000000005 1.3640352388416692 1.284256396887993 37.955000000000005 1.4214305783406107 1.1211935300951972 -122.35499999999998 38.005000000000003 -117.83499999999999 33.935000000000009 34.665000000000006 -120.63499999999998 4.9663289649179552 -117.16499999999998 1.0592848020434229 38.545000000000009 -117.79499999999999 16.500000000000004 34.045000000000009 -118.37499999999999 -117.12499999999999 34.115000000000002 -118.37499999999999 -122.29499999999999 37.635000000000012 37.355000000000011 -118.22499999999998 33.635000000000012 34.165000000000006
decision_type=2 2 2 2 2 2 2 2 2 2 2 2 2 2 2 2 2 2 2 2 2 2 2 2 2 2 2 2 2 2
left_child=1 3 6 4 7 8 18 -1 9 15 -11 13 26 -5 16 -2 24 19 -3 20 -15 22 23 -9 -8 27 -13 29 -29 -26
right_child=5 2 -4 11 -6 -7 14 21 -10 10 -12 12 -14 17 -16 -17 -18 -19 -20 -21 -22 -23 -24 -25 25 -27 -28 28 -30 -31
leaf_value=0.023385808018079941 0.02226700951871334 0.0014330693875978652 -0.0029286537586558797 0.035002547228941694 -0.010228323599057672 0.0070194580647981886 0.018457905962732186 0.038028948641316458 -0.0058341607327837448 0.015230102150549964 -0.032548164664648285 0.0042582198286594429 -0.019116045207979299 0.042053438574075702 -0.012717660958731336 0.037765277744881039 -0.0092015390076310294 -0.012655188495087365 0.025559694785219824 0.0027424398808026905 -0.0081811076917132734 -0.011905600909218701 -0.0025897376093304033 0.003799492038455728 0.024158926765158684 -0.0057111326902201266 -0.010990469901264299 0.022731753585527942 -0.0028447102585860409 0.0074096630972019743
leaf_weight=149 926 114 2388 32 991 547 320 101 81 222 39 214 801 20 158 290 202 912 345 761 1272 284 1145 762 302 335 1356 157 594 692
leaf_count=149 926 114 2388 32 991 547 320 101 81 222 39 214 801 20 158 290 202 912 345 761 1272 284 1145 762 302 335 1356 157 594 692
internal_value=-4.57854e-12 -0.00257166 0.00292771 -0.00607564 -0.00182462 0.0176009 0.00727222 0.00158713 0.021316 0.0228049 0.00809082 -0.0087935 -0.0123592 -0.00597256 0.00522747 0.0259631 0.00631714 -0.00641478 0.0195675 -0.00364262 -0.00740348 0.000170025 0.00187793 0.00780549 0.0076233 0.00595643 -0.00891199 0.00819634 0.00250217 0.0124985
internal_weight=16512 14407 5607 8800 3432 2105 3219 2441 1558 1477 261 5368 2371 2997 2760 1216 2602 2965 459 2053 1292 2292 2008 863 2400 2080 1570 1745 751 994
internal_count=16512 14407 5607 8800 3432 2105 3219 2441 1558 1477 261 5368 2371 2997 2760 1216 2602 2965 459 2053 1292 2292 2008 863 2400 2080 1570 1745 751 994
is_linear=0
shrinkage=0.05


Tree=33
num_leaves=31
num_cat=0
split_feature=0 0 5 9 6 7 7 6 8 6 7 6 9 7 6 7 6 7 6 6 6 6 7 7 6 6 5 4 9 0
split_gain=271.993 80.1101 61.9139 50.066 35.2266 40.017 29.8719 34.9835 27.3375 22.8158 22.67 22.4986 20.7512 20.658 43.1401 41.725 24.2096 24.0438 25.2107 21.7228 18.1584 17.2505 17.0495 15.803 18.6694 17.0345 18.5795 17.4434 15.0177 15.0125
threshold=5.1385500000000013 2.5058500000000001 1.2969700085072571 5.0859645069647614 37.975000000000001 -122.35499999999998 -117.94499999999998 37.935000000000009 0.35274553280292159 37.985000000000007 -117.175 37.765000000000008 4.3472040316437512 -117.895 34.175000000000004 -118.37499999999999 33.865000000000002 -121.91499999999998 37.595000000000006 35.335000000000008 33.675000000000004 34.035000000000004 -116.69999999999997 -122.40499999999999 38.745000000000012 37.925000000000004 1.433373896381011 5.3351284364833438 5.8683335996379453 1.8845500000000002
decision_type=2 2 2 2 2 2 2 2 2 2 2 2 2 2 2 2 2 2 2 2 2 2 2 2 2 2 2 2 2 2
left_child=1 8 4 6 5 11 7 12 29 10 28 -3 -2 14 15 -7 -15 18 -16 -19 -17 -22 23 24 -4 26 27 -25 -5 -1
right_child=3 2 22 9 -6 13 -8 -9 -10 -11 -12 -13 -14 16 17 20 -18 19 -20 -21 21 -23 -24 25 -26 -27 -28 -29 -30 -31
leaf_value=-0.014611283029573194 0.0057483995598593017 0.00901954585867276 0.012867400512958607 0.020188194192439644 -0.0059377270587473441 0.031050186956771156 -0.0036967296702541635 -0.011746669079227086 0.0047680763627326343 -0.002921896454753335 -0.0058045301757588541 0.036652363143873087 0.018710391020066729 0.0022746957359805935 0.018100224960007898 0.03859568421536571 -0.019082078601677915 0.0040468480376845539 -0.0019064921489775205 -0.014559072089927256 -0.00066721406139587402 0.015799843437077171 -0.030233233986843019 0.043097785722626292 -0.015879539871821179 -0.011847094906206517 -0.0067494857567291303 -0.00067122129428801068 0.032561975209641138 -0.0079135479008248921
leaf_weight=1377 496 138 262 819 726 280 436 149 318 97 68 158 818 559 302 46 174 287 329 346 387 270 62 23 72 692 2126 2213 350 2132
leaf_count=1377 496 138 262 819 726 280 436 149 318 97 68 158 818 559 302 46 174 287 329 346 387 270 62 23 72 692 2126 2213 350 2132
internal_value=-1.35708e-11 -0.00316643 -0.000695281 0.0130056 0.00402711 0.00623543 0.00779056 0.011214 -0.00926971 0.0204293 0.0222604 0.0237695 0.0138176 0.0044938 0.00687149 0.0147276 -0.00279499 0.000761898 0.00766883 -0.00612321 0.00822638 0.00610007 -0.00416299 -0.003863 0.00667046 -0.00455911 -0.00340293 -0.000221003 0.0238929 -0.0105419
internal_weight=16512 13279 9452 3233 4002 3276 1899 1463 3827 1334 1237 296 1314 2980 2247 983 733 1264 631 633 703 657 5450 5388 334 5054 4362 2236 1169 3509
internal_count=16512 13279 9452 3233 4002 3276 1899 1463 3827 1334 1237 296 1314 2980 2247 983 733 1264 631 633 703 657 5450 5388 334 5054 4362 2236 1169 3509
is_linear=0
shrinkage=0.05


Tree=34
num_leaves=31
num_cat=0
split_feature=0 0 5 6 7 1 6 7 7 6 5 9 6 7 5 7 6 6 6 7 4 7 6 5 1 9 7 6 7 6
split_gain=247.631 69.4769 56.209 55.9893 45.925 37.1897 31.6466 50.6803 45.3666 36.6078 25.1244 23.8153 21.7984 28.8179 20.4693 19.3461 21.1751 18.7226 17.9317 33.2934 26.2267 24.1367 22.7326 18.028 17.751 17.6172 16.6286 16.0081 15.1496 15.1692
